solver_type L2R_L2LOSS_SVC_DUAL
nr_class 2
label 1 -1
nr_feature 80
bias -1
w
0.1491359141874241 
-0.221083277348377 
0.1537356481959208 
-0.1732350149166535 
0.1483582303308494 
-0.2265536793843183 
0.1604883663044034 
-0.1737358253083729 
0.1381602403938274 
-0.2185130696166708 
0.1657625102836246 
-0.1768608850225691 
0.1474919230546143 
-0.2250289456909279 
0.1595242518840736 
-0.1734393587087919 
0.1514300242689039 
-0.2461251155039582 
0.1746072001982573 
-0.1713658474542775 
0.1344752808061382 
-0.2365621066003101 
0.1785170403204822 
-0.1678813944765461 
0.1330664932604471 
-0.2364655584492825 
0.185049697254033 
-0.1731035820651393 
0.1266113598891828 
-0.22875942867806 
0.1813707226573023 
-0.1706750970309208 
0.1304228507970872 
-0.2433730372280972 
0.1850961605824141 
-0.163600833772443 
0.1295701382029971 
-0.245073836577757 
0.186523336690761 
-0.1624756070952942 
0.1350994269117719 
-0.2536323911925231 
0.1897427561534728 
-0.1626614061538616 
0.134135147950828 
-0.2427173947524445 
0.189877087258179 
-0.1727461419422374 
0.1275973886691527 
-0.2337790647998781 
0.1909784139994662 
-0.1762522188772482 
0.1319978766081135 
-0.2360157661623477 
0.1898694820075829 
-0.1773058109447473 
0.1378991359346909 
-0.2419628155415765 
0.1846165331952469 
-0.1720086554741209 
0.1417647832677207 
-0.2525221969914148 
0.1925679503595866 
-0.1732633146399121 
0.1436785722757165 
-0.252735386425454 
0.1882238262736415 
-0.1706207433555453 
0.1452437815854498 
-0.2514557626189399 
0.1852214419263638 
-0.1704638026518802 
0.1399024444260587 
-0.2514566295787538 
0.190212747134183 
-0.170111307806826 
0.1404963777363113 
-0.2422387631677588 
0.1947574541030719 
-0.184467714142056 
