solver_type L2R_L2LOSS_SVC_DUAL
nr_class 2
label 1 -1
nr_feature 5697
bias -1
w
-0.02278894101663908 
-0.02365913553532729 
0.001061585827793126 
0.03555257531849149 
0.04050590009648573 
0.01217918158090955 
-0.001094853027423261 
-0.01584378419293645 
-0.03241060369362529 
-0.01372365051732558 
0.0179187660639989 
0.02256247547941093 
-0.002594281600874141 
-0.005370428594939676 
-0.001563734319189117 
-0.003121866346063542 
-0.01697372969980463 
-0.03185399438300153 
0.01344042394343225 
-0.004732039547719331 
3.787752842891203e-05 
-0.005821926672643087 
-0.04223940081696829 
-0.007584974924436501 
0.007683995515857472 
0.0004171910557737865 
0.007230998205994436 
-0.002594281600874141 
-0.01611665684458213 
-0.008400985135196742 
-0.01720487425798295 
0.005949536421527473 
-0.005950001200196701 
-0.0004575908371376449 
-0.0009508420294967809 
-0.007964992580482432 
-0.002594281600874141 
-0.003288362475891971 
-0.04584118695287021 
0.0009007689933879271 
-0.002594281600874141 
-0.06421559632138911 
-0.004684686368732761 
0.005056978814148241 
0.01778731241956204 
-0.003747799080020084 
-0.003358044200912447 
0.001828963534072217 
0.00795543811922832 
-0.01858850937061776 
-0.00609243784327858 
-0.008770411187667384 
0.006855500358727066 
-0.007747511744248625 
-0.002594281600874141 
-0.004516586807183771 
-0.004115943866394614 
-0.03895798455115594 
-0.01200159837065316 
0.02389159179179421 
-0.004634505211132784 
-0.002657864835778563 
-0.00952536825903033 
0.01214330088392279 
-9.356283698907028e-05 
-0.005887223148289841 
0.0147628876794088 
-0.006025669839138059 
0.001845089904622067 
0.00313682436176645 
-0.002552717755246515 
-0.001983952020174389 
0.002058145612864653 
-0.0008932674409578106 
0.001987609621475351 
-0.01423267895360488 
-0.001360589589337409 
-0.006258647528777009 
-0.007092037022187943 
-0.004016033555112944 
-0.002594281600874141 
0.008161292256575319 
-0.002594281600874141 
-0.03735256513145994 
-0.002594281600874141 
-0.002594281600874141 
-0.00601928220156641 
-0.009556051116871533 
-0.00292229834313434 
-0.004226579382654017 
-0.006361436837143767 
-9.783255333682675e-05 
-0.004050639512034611 
-0.06351811729567555 
-0.01039657825722698 
-0.005188563201748281 
-0.01099625865565544 
0.004008038720884771 
-0.006563722784460857 
0.01263546683443638 
-0.002594281600874141 
-0.02393620204214504 
-0.002594281600874141 
-0.001363631291982758 
-0.002594281600874141 
0.004604243479609274 
-0.01539615286691476 
-0.0006033080619418835 
-0.003290540517165609 
-0.009889981033474354 
-0.005568019525309151 
-0.01306069410072278 
0.003359760689718353 
-0.01054335825480732 
-0.002594281600874141 
-0.005385647141331759 
0.00413379232668347 
-0.004746141736324899 
-0.002566856171222167 
-0.002594281600874141 
-0.002594281600874141 
0.01144362768675955 
-0.004722741527359353 
0.01754098788447683 
-0.003505370984960914 
-0.001381592856694458 
-0.00795576352603402 
-0.0110051466527416 
-0.004044631822938459 
-0.002594281600874141 
-0.004944636948579262 
-0.002594281600874141 
0.005149069672398226 
-0.009803878570325922 
-0.00271001759908172 
-0.002594281600874141 
-0.002594281600874141 
-0.002594281600874141 
-0.005188563201748281 
-0.008966315169393628 
-0.005188563201748281 
-0.002594281600874141 
-7.180433273474093e-05 
-0.002594281600874141 
-0.00389212458785957 
-0.002307544613433692 
0.00214614979306648 
0.01336032542776929 
-0.009697543584506771 
-0.002594281600874141 
-0.002594281600874141 
-0.0006238565684011694 
-0.007180275008747241 
0.008190050197328673 
-0.002594281600874141 
-0.002594281600874141 
0.00229043189938021 
6.603857056317329e-05 
-0.002594281600874141 
2.904263346648669e-05 
0.009465667050621997 
-0.002594281600874141 
-0.002594281600874141 
0.00189728833061672 
-0.002060201213927018 
-0.002594281600874141 
-0.01190804427480678 
-0.003223312953908474 
-0.001173188158461659 
-0.0003881971372662213 
-0.007782844802622424 
-0.004654482814801158 
0.008819322692306663 
0.009570675265351441 
-0.01152167725417736 
-0.001219574046480053 
0.001380772434038031 
0.005065370818063715 
0.002096685733625434 
-0.01314764178281599 
0.009315066487532666 
-0.0007671820375415158 
-0.002086217002376304 
-0.002594281600874141 
0.001496474481301129 
0.008129068195585766 
-0.003507818311382136 
0.0006511777577399929 
0.00107833278621779 
-0.01242448876509886 
-0.0005247826417768721 
8.617020762722124e-06 
-0.008886356523953748 
0.007222446178579025 
0.00155251577260134 
-0.001696445614900837 
0.006821720858100459 
-0.002594281600874141 
0.01347030038763015 
0.01453390642250826 
-0.002594281600874141 
-0.01724670293828338 
0.004013397619051243 
-0.002594281600874141 
-0.002594281600874141 
-0.002594281600874141 
-0.002821631599302791 
-3.168922716344853e-05 
0.01549021568574685 
-0.0003312543327424761 
0.0002901082829838481 
-0.0001549310538194367 
-0.007337100491385945 
-0.002594281600874141 
-0.007337100491385945 
-0.000328820489169795 
0.02145718387552845 
-0.003636957733000763 
-0.002594281600874141 
-0.001528360328444916 
0.0009059749465984523 
-0.002594281600874141 
-0.00389212458785957 
0.004314935399756525 
-0.002594281600874141 
0.009298746787842262 
-0.002594281600874141 
0.002061958334040722 
0.006632815162576839 
-0.002594281600874141 
-0.006486406188733711 
-0.002210408906816832 
-0.002594281600874141 
-0.001526120826979894 
-0.001109484263465023 
0.0121108144293123 
-0.002594281600874141 
0.00130217663147753 
-0.01207819585077579 
-0.002395886721495892 
-0.002594281600874141 
-0.004157293409229438 
-0.001183470366771207 
-0.0022033794182488 
-0.005792423928062622 
0.02231276033184106 
-0.002594281600874141 
-0.002594281600874141 
0.01074294065355372 
-0.00259428160087414 
0.0007697132124963028 
-0.002813136653543628 
-0.002594281600874141 
-0.006645605095274627 
-0.01408140882080439 
0.001285300460582213 
-0.004397034249625582 
0.01284542114135032 
-0.007562839482464127 
0.001282933540365414 
-0.0015740264566899 
-0.002395886721495892 
-0.002594281600874141 
-0.002594281600874141 
-0.0007036904520127841 
-0.002868124420988925 
-0.01214011850273195 
-0.002594281600874141 
-0.006757221834282573 
-0.002296421666286171 
0.0004589023387075545 
0.002774873899379919 
0.01856526885546628 
-0.002594281600874141 
-0.005765417659485976 
-0.009519615950452552 
0.01391154561160642 
0.0002995632311214877 
-0.0009135367105079949 
-0.001646470773707851 
0.004560762874723694 
-0.00182707342101599 
-0.0001427031393649724 
-0.006753394825725564 
-0.002740610131523985 
-0.0009135367105079949 
-0.003709419891111189 
0.005403404782237142 
-0.0009135367105079949 
-0.002374944432076105 
0.003126688125830496 
0.01336870328413023 
0.01695377778277648 
0.00594562861404766 
-0.0009135367105079949 
0.02688613798283468 
-0.005908526151521111 
-0.001611491813663449 
0.001212703073982196 
-0.001841061392490229 
-0.0009135367105079949 
0.0001067184336762456 
0.01050233150000932 
-0.0009135367105079949 
-0.001368236707365295 
0.003871212905113111 
-0.005448650506156717 
-0.0009135367105079949 
-0.010944851806145 
-0.003065396845958755 
0.006478233248445893 
-0.004661720807796125 
-0.0009135367105079949 
-0.0009135367105079949 
-0.0009135367105079949 
-0.0009135367105079949 
-0.0009135367105079949 
-0.002825907082073602 
-0.002145531389488925 
-0.0009135367105079949 
-0.003320145666224805 
-0.0009135367105079949 
-0.0009135367105079949 
-0.05409880268980562 
-0.003433220790033296 
-0.01774544571207784 
-0.002740610131523985 
0.0004972745235949385 
-0.0009135367105079949 
-0.01822845746491331 
-0.002740610131523985 
-0.002439988652701263 
0.03918595611047606 
-0.00182707342101599 
-0.02436900373821951 
-0.0009135367105079949 
-0.000400232703832144 
-0.001259509896622136 
0.0209664209334569 
-0.00841500176866085 
-0.01886147831882677 
-0.01763131567325264 
-0.0009135367105079949 
0.01747082546415178 
-0.0009135367105079949 
-0.0009135367105079949 
-0.002899875207295706 
0.004922438742074762 
0.01102011022817764 
-0.0006595329951756842 
0.0008236073166036821 
-0.0009135367105079949 
-0.004542396556969304 
0.0005858918629428845 
0.001538108957108365 
0.02060727230276416 
0.03757475907253522 
-0.0001460762071010505 
-0.005197034467175681 
0.006781664730986416 
-0.00182707342101599 
-0.001243322895622466 
-0.02147874168506581 
-0.0003794563235608715 
-0.008032379952467132 
0.01424024076299517 
0.001903353910078066 
-0.01445468528921596 
-0.0009135367105079949 
-0.002878229873468978 
0.01091198859516738 
0.005958974965839602 
0.009214199765270126 
-0.0009135367105079949 
-0.02006930810078262 
-0.0003141791592540169 
-0.006644932774779059 
0.02241012627739138 
-0.0009135367105079949 
-0.005272123032583751 
-0.0009135367105079949 
-0.0003794563235608715 
0.01087609400526017 
-0.002418348211894128 
-0.0048527279390443 
0.001487215667073819 
-0.008796574545727975 
-0.007222008333405349 
-0.0065653508746552 
-0.003323174696020881 
-0.0009135367105079949 
0.02754473119216738 
-0.0009135367105079949 
-0.0009135367105079949 
-0.002967960129952637 
-0.0009135367105079949 
-0.0009135367105079949 
-0.00121286183009834 
0.01264060053685196 
-0.0009135367105079949 
0.0056387971970414 
-0.004567683552539976 
-0.0009135367105079949 
-0.0009135367105079949 
-0.0009135367105079949 
-0.0009135367105079949 
-0.0009135367105079949 
-0.008507382862992983 
-0.0009135367105079949 
-0.0009135367105079949 
0.0001067184336762456 
-0.001062119776929985 
-0.0009135367105079949 
-0.0009135367105079949 
-0.0009135367105079949 
-0.00166158734801044 
-0.001292993034068866 
-0.002145531389488925 
-0.0009135367105079949 
-0.0009135367105079949 
-0.0009135367105079949 
-0.01085463101542737 
-0.0009135367105079949 
0.001737303158560238 
-0.002611191895644319 
0.001117326903332868 
0.001584362014433253 
-0.0005167469517514947 
-0.0003794563235608715 
-0.0009135367105079949 
-0.0009135367105079949 
0.001237543326814795 
-0.002145531389488925 
-0.0009135367105079949 
-0.0009135367105079949 
-0.01975027327615362 
-0.0008719728648803688 
-0.001140886708936645 
-0.0009135367105079949 
0.007779070538152404 
-0.0009135367105079949 
-0.000758912647121743 
-0.008076040610988672 
-0.0009135367105079949 
0.0004915929188557284 
-0.002211379697493424 
-0.001696231346098081 
-0.0009135367105079949 
-0.00182707342101599 
0.002187701532615754 
-0.0009135367105079949 
-0.002394521411210296 
-0.0009135367105079949 
-0.00182707342101599 
-0.002211379697493424 
-0.0001701856979717179 
-0.0009135367105079949 
-0.0009135367105079949 
0.003503041632784481 
-0.0009135367105079949 
-4.104892783909193e-06 
0.001174879207570492 
0.001584378580250334 
0.02379710979927321 
-0.00182707342101599 
-0.0009135367105079949 
0.001470958014155024 
0.006379430916373481 
-0.0009135367105079949 
0.0002243869792056775 
0.002697500411391314 
-0.0009135367105079949 
-0.0009135367105079949 
0.02262262495605682 
-0.00182707342101599 
-0.0009135367105079949 
-0.006511597688544942 
0.01116044855721907 
-0.00182707342101599 
-0.00182707342101599 
-0.002281773417873289 
-0.0009135367105079949 
0.001555530826542968 
-0.0009135367105079949 
-0.001419607928803089 
0.003529678302017706 
0.01090604716394091 
-0.0009135367105079949 
-0.007465239837925125 
0.01489697291808513 
-0.0009135367105079949 
-0.0009135367105079949 
-0.0005418612042398564 
-0.005458655929016283 
-0.00267032113072507 
-0.0009135367105079949 
0.0002032700467491691 
-0.001292831228255722 
-0.0009135367105079949 
-0.0009135367105079949 
-0.00250200073753842 
-0.0009135367105079949 
-0.0009135367105079949 
-0.002740610131523985 
-0.00182707342101599 
-0.0009135367105079949 
-0.0009135367105079949 
0.003738108531666641 
-0.005758755551913798 
-0.0009135367105079949 
-0.005668254926848838 
-0.0009135367105079949 
-0.0009135367105079949 
0.003658200267700399 
0.0005712606269011231 
-0.0009135367105079949 
0.0009065528863953184 
0.006964427493669737 
0.008173227563980087 
-0.0009135367105079949 
-0.002750186645962864 
-0.009531808525918015 
-0.0003794563235608715 
0.01551888484095472 
0.003487481650573184 
0.001961073870430835 
0.0003171135983833879 
-0.0009135367105079949 
-0.002145531389488925 
-0.0009135367105079949 
-0.0009135367105079949 
-0.00182707342101599 
-0.001411664445614792 
0.002019417349416912 
-0.002783268443995629 
-0.001950032156960445 
-0.00666897810642293 
-0.0009135367105079949 
-0.0009135367105079949 
-0.0009135367105079949 
0.00139734881207099 
-0.001076400388061463 
-0.0003794563235608715 
-0.0009135367105079949 
-0.0009135367105079949 
-0.0009135367105079949 
-0.0009135367105079949 
-0.0009135367105079949 
-0.0009135367105079949 
-0.0009135367105079949 
-0.0009135367105079949 
-0.001275530000595106 
-0.0009135367105079949 
-0.0009135367105079949 
0.003204028144719517 
-0.0009135367105079949 
-0.0009135367105079949 
-0.0009135367105079949 
-0.0009135367105079949 
-0.0009135367105079949 
-0.009905379432255348 
-0.0009135367105079949 
0.0004886949655773447 
-0.0005418612042398564 
-0.0009135367105079949 
-0.01251207698746327 
8.769885817211842e-05 
-0.001646470773707852 
0.0002243869792056775 
0.0006101536874505191 
-0.0009135367105079949 
0.01098559202241618 
-0.003969323971614196 
0.0003071224508915082 
-0.0009135367105079949 
-0.0009135367105079949 
-0.0009135367105079949 
-0.0009135367105079949 
-0.003065396845958755 
-0.008300765524478722 
-0.002374944432076105 
-0.0009135367105079949 
-0.0009135367105079949 
-0.0009135367105079949 
-0.001676961000325779 
-0.0009135367105079949 
0.00137382114052702 
0.003553690318520661 
-0.01753975076062827 
-0.0007285176927034194 
-0.006784171078127083 
-0.008453957927314956 
-0.004379829567488048 
-0.00182707342101599 
-0.0003794563235608715 
-0.0009135367105079949 
0.003874365060001644 
-0.0009135367105079949 
-0.0009135367105079949 
-0.0009135367105079949 
-0.001687469491258777 
-0.00305906809999692 
-0.0009135367105079949 
0.0005155084777616381 
-0.0009135367105079949 
-0.0009135367105079949 
-0.0009135367105079949 
0.01097949167820841 
-0.0009135367105079949 
0.000219193845344178 
0.00261268503447911 
-0.0009135367105079949 
0.0007566320476781984 
-0.01068173875296628 
-0.0009135367105079949 
-0.0005816614343521183 
0.0002904792580758981 
0.00412072724406282 
0.003812143750666248 
0.001464719912551269 
-0.001225065436724044 
-0.0009135367105079949 
-0.0009135367105079949 
0.001801910935792507 
-0.0009135367105079949 
-0.0009135367105079949 
0.006890786194239487 
0.001406713165873844 
0.004717479565696819 
0.003690028399654069 
-0.0009135367105079949 
-0.0009135367105079949 
0.00366555440067552 
-0.01106596220579904 
-0.001877523014166507 
0.0003171135983833879 
-0.002077665126143025 
-0.009684815490311943 
-0.0009135367105079949 
0.0002506957616175322 
-0.002145531389488925 
-0.003065396845958755 
-0.0009135367105079949 
-0.0009135367105079949 
-0.0009135367105079949 
-0.008661093286636405 
0.004110496966256278 
-0.0009135367105079949 
-0.0009135367105079949 
0.001908085757697872 
-0.01129367401052605 
-0.0009135367105079949 
-0.0009135367105079949 
-0.002938318660075287 
-0.0009135367105079949 
0.0007373504336962926 
-0.0009135367105079949 
0.01072350219719444 
-0.004690238598559738 
-0.0009135367105079949 
-0.0009135367105079949 
-0.005049459131899314 
-0.0009135367105079949 
-0.0009135367105079949 
-5.137690576224727e-05 
-0.0009135367105079949 
-0.0009135367105079949 
-0.008770212511582613 
-0.0009135367105079949 
-0.0009994805876105759 
-0.0009135367105079949 
0.001065635422567568 
0.00028656674335254 
-0.0009135367105079949 
-0.002374944432076105 
0.001420321028398218 
-0.001646470773707851 
0.002192045226636342 
-0.0008719728648803688 
0.01225549852026471 
0.0006887044503333754 
0.01226311721981878 
0.002078604647531987 
-0.0009135367105079949 
0.01632532815050777 
0.001447618751720891 
0.006518874307165102 
-0.0009135367105079949 
-0.000450540337316754 
0.003829668663458305 
-0.007404086126415749 
-0.001588464027030426 
-0.01771300378692965 
0.0100413437596282 
-0.005295812495654559 
-0.0009135367105079949 
-0.008116045973934663 
0.00679314444891646 
0.0156841233958207 
0.000395784997138806 
-0.00197090291997017 
-0.01035908597931391 
-0.003870902979188471 
-0.01493696761801936 
-0.004503996945675338 
0.000395784997138806 
0.001895213570589685 
0.000395784997138806 
0.000395784997138806 
-0.01306275958553183 
0.000395784997138806 
0.000395784997138806 
0.000395784997138806 
0.000395784997138806 
0.009654799425708297 
-0.0003522656403636393 
0.000791569994277612 
0.009498839931331347 
0.003562064974249254 
0.00393374048051739 
0.000791569994277612 
0.001583139988555224 
0.000395784997138806 
0.000395784997138806 
0.00151778076365187 
0.001187354991416418 
0.008334477992446439 
0.000395784997138806 
0.000395784997138806 
0.001583139988555224 
0.000791569994277612 
0.000395784997138806 
0.000395784997138806 
0.000395784997138806 
0.000395784997138806 
-0.000544091815649039 
0.000791569994277612 
0.000791569994277612 
0.000791569994277612 
0.000791569994277612 
0.000791569994277612 
0.003183735250648464 
0.000791569994277612 
0.001187354991416418 
0.000791569994277612 
0.000395784997138806 
0.000395784997138806 
0.000395784997138806 
0.000395784997138806 
0.000395784997138806 
-0.003068237056362492 
-0.001912973578340909 
0.000395784997138806 
0.000791569994277612 
0.001583139988555224 
0.000395784997138806 
0.000395784997138806 
0.000395784997138806 
0.000395784997138806 
0.000395784997138806 
0.01490804534776711 
0.000395784997138806 
0.003442454510060405 
-0.006920053770383264 
0.000395784997138806 
0.000395784997138806 
0.000395784997138806 
0.000395784997138806 
0.0007796576911961138 
0.000395784997138806 
0.000791569994277612 
0.006338801129379166 
0.000395784997138806 
-0.00240023556086067 
-0.01737405773090231 
0.000395784997138806 
0.000395784997138806 
0.01877541726625213 
0.000395784997138806 
0.000395784997138806 
0.000395784997138806 
0.000395784997138806 
0.008276894476579486 
-0.001527576788070671 
6.826453616265839e-06 
0.000395784997138806 
-0.001065622724429305 
0.007700330935503583 
0.000395784997138806 
-0.01441145696437628 
0.000791569994277612 
0.000395784997138806 
0.000395784997138806 
-0.002888400875628651 
0.004117673845183242 
0.0007674605034069437 
-0.01202145698006787 
-0.0005136149965757936 
-0.0003650308689869945 
0.007443938079023878 
0.000395784997138806 
-0.002822626572779887 
0.01524334846326893 
-0.009741558198289863 
0.000395784997138806 
0.000395784997138806 
0.009372005570521468 
0.000395784997138806 
-0.01329087217485812 
0.004308096585833633 
-0.0005062729927078177 
0.001006114577838558 
-0.01097453706150137 
-0.004393623358373709 
-0.004646327458684028 
0.000395784997138806 
-0.006872144548117381 
0.000395784997138806 
-0.001702803507587678 
0.000395784997138806 
0.0007028627675842644 
-0.007905622798516868 
0.000395784997138806 
0.000395784997138806 
-0.02111217521282146 
0.000395784997138806 
0.000395784997138806 
-0.01490115379837979 
0.000395784997138806 
0.000395784997138806 
0.001534921006813887 
0.000395784997138806 
0.000395784997138806 
0.000395784997138806 
0.000395784997138806 
0.000395784997138806 
0.004935605944309741 
0.000395784997138806 
0.000395784997138806 
-0.001756075138311955 
0.008456339666945933 
0.002334995013449652 
0.000395784997138806 
0.001435700187444971 
0.000395784997138806 
0.001860275176289156 
0.000395784997138806 
0.000395784997138806 
0.000395784997138806 
0.000395784997138806 
0.008655009767667211 
-0.001732674929346408 
0.003212468429166187 
0.000395784997138806 
0.000395784997138806 
0.000395784997138806 
0.000395784997138806 
0.000395784997138806 
0.000395784997138806 
0.000395784997138806 
0.000395784997138806 
0.000395784997138806 
0.000395784997138806 
0.000395784997138806 
0.000395784997138806 
0.000395784997138806 
0.000395784997138806 
0.000395784997138806 
0.000395784997138806 
0.000395784997138806 
0.000395784997138806 
0.000395784997138806 
0.000395784997138806 
0.000395784997138806 
0.000395784997138806 
0.000395784997138806 
0.000395784997138806 
0.000395784997138806 
0.000395784997138806 
0.000395784997138806 
0.000395784997138806 
0.000395784997138806 
0.000395784997138806 
0.003418691416319326 
0.004622707384903221 
0.008024831592926225 
0.00281668343202738 
-0.007128220008243783 
-0.01108909814835625 
0.01497537172164273 
0.009664297234365175 
0.001376484958701626 
0.00281668343202738 
0.006070552090725947 
0.009145236454741315 
0.00845005029608214 
0.00707928797686623 
0.00612645428064664 
0.00281668343202738 
0.003350763818974504 
0.01373138258560923 
0.01126673372810952 
0.003506290197757481 
0.0130217356467026 
0.002743764099796896 
-0.00278753226329435 
0.0006882235055421671 
0.00845005029608214 
0.00281668343202738 
0.01653182087963851 
0.00281668343202738 
0.003418691416319326 
0.005633366864054761 
0.003933490189284545 
-0.01781000052405836 
0.002858247277655006 
0.00281668343202738 
0.00281668343202738 
0.00281668343202738 
0.005453111001695887 
0.00281668343202738 
0.00281668343202738 
0.002556138528334309 
0.001576518623738916 
0.005633366864054761 
0.00281668343202738 
-0.001455034279886817 
0.00281668343202738 
0.00281668343202738 
0.00281668343202738 
0.00281668343202738 
-0.0009745812951129141 
0.005633366864054761 
0.00281668343202738 
-0.004310205180564612 
0.00147431105491891 
0.002289079977979379 
0.00281668343202738 
-0.0009801593974149336 
0.004535498173576487 
0.00281668343202738 
-0.009540094680575125 
0.00281668343202738 
0.005165396731560187 
0.009533069612053613 
-0.01843814488233666 
0.004703810621093292 
0.01126673372810952 
0.007370045699925771 
0.01759051503835176 
0.00252045150768255 
0.007264810553051088 
0.01556801485866259 
0.002840073047868387 
0.004020699400611272 
-0.009293829216480629 
-0.004122041989845173 
0.005633366864054761 
0.00281668343202738 
0.03299502201323983 
0.008504992183600251 
0.03069053917847455 
0.002886151251464452 
0.003339794506436292 
0.00135527571045927 
0.003418691416319326 
0.00281668343202738 
0.00281668343202738 
-0.0002379439751751239 
0.00281668343202738 
0.00281668343202738 
0.004227494666130313 
0.00281668343202738 
0.00281668343202738 
0.004418924592868749 
0.001751684654470246 
0.00281668343202738 
0.00281668343202738 
0.006532698583970086 
0.00281668343202738 
0.00281668343202738 
0.01142906903064722 
0.001202444086269509 
0.00281668343202738 
0.003056642157033257 
0.009876933872077701 
0.00281668343202738 
0.00281668343202738 
0.00281668343202738 
0.00281668343202738 
0.002220116977253242 
0.01201837361308907 
-0.002839745877033806 
0.003427013012727132 
0.002141756115504949 
-0.01117229936299094 
0.00281668343202738 
0.00281668343202738 
0.001958939647323935 
-0.007570008043634261 
0.00281668343202738 
-0.005362971759755807 
0.00281668343202738 
0.02038083855724017 
0.004227494666130313 
0.004016786885887915 
0.00281668343202738 
0.003418691416319326 
0.004932827962917218 
0.01165090037915635 
-0.002640741846829497 
0.00281668343202738 
0.003427013012727132 
2.531789156976025e-05 
0.0006882235055421669 
0.00281668343202738 
0.00281668343202738 
0.00281668343202738 
0.004537981276990814 
-0.005298730333254747 
0.002233947729573822 
0.001484797337409118 
0.001484797337409118 
-0.001110888636561741 
0.02376441029429656 
0.002206832186462277 
0.004205350895311156 
0.02040218195662261 
0.01873043026878981 
0.001484797337409118 
0.009965593632858358 
0.001484797337409118 
0.04596167343843661 
0.002969594674818236 
0.003984582444132993 
0.007652457135829452 
0.001484797337409118 
-0.0003301889244344228 
0.005724279026911864 
0.03225196043762783 
-0.01739738135699515 
0.002969594674818236 
0.001484797337409118 
0.001484797337409118 
0.001484797337409118 
0.001484797337409118 
0.001484797337409118 
0.002601604094666283 
0.0005017885293927952 
0.001484797337409118 
0.001484797337409118 
0.001484797337409118 
0.004875238042638505 
0.001484797337409118 
0.001484797337409118 
0.009052588116752752 
0.001484797337409118 
-0.005339656871320068 
-0.004402409613226082 
0.002984225910859996 
0.005113625509565567 
0.005939189349636472 
0.002969594674818236 
-0.01163211817447554 
0.001484797337409118 
0.001188565413064288 
0.001484797337409118 
0.001484797337409118 
0.001484797337409118 
0.002862603304867379 
0.002325932085742141 
-0.00346495743920851 
0.002601604094666282 
0.001484797337409118 
0.007087159530045744 
0.001484797337409118 
0.009349769736320585 
0.001484797337409118 
0.00395074066865669 
0.000442121205282496 
0.001484797337409118 
0.005650269366181345 
-0.00963857519243694 
0.001484797337409118 
0.0196271940028174 
0.001484797337409118 
0.001484797337409118 
0.008649075053044578 
0.002086805321701064 
0.002969594674818236 
0.002969594674818236 
0.01459228925144784 
0.01141120518423941 
0.001484797337409118 
-0.0009122507474182718 
-0.01029298807285411 
0.005168713698109723 
0.001484797337409118 
0.004688849294911817 
0.001484797337409118 
0.004004064345861489 
-0.01190779980177673 
0.0003739087008473767 
0.002018877724356242 
0.001484797337409118 
-0.002602993471823032 
0.00438638712503942 
0.001484797337409118 
-0.002502113478398499 
0.001484797337409118 
0.01832054432729045 
0.003637584097616193 
-0.00491148731696784 
-0.001392682997823621 
0.001484797337409118 
0.009541107608389441 
0.001484797337409118 
0.0002528026584281877 
0.001484797337409118 
0.001484797337409118 
0.002018877724356242 
0.006520857676415181 
-0.006062313250553324 
0.001484797337409118 
0.001484797337409118 
0.01059017465835678 
0.0006799499532260635 
-0.008388997057912637 
0.002622721027122791 
0.001484797337409118 
0.01231143722266839 
-0.002767975924616614 
0.001484797337409118 
0.001484797337409118 
0.002018877724356242 
-0.003064018594674194 
0.001484797337409118 
0.0001869543504236884 
0.001484797337409118 
0.002969594674818237 
-0.001214911928680608 
0.001484797337409118 
-0.001713344989779363 
-0.003246905064057421 
0.01553755517362267 
0.01516584138991052 
0.001484797337409118 
0.0027154476463005 
-0.01346017093332817 
0.002777816513794619 
-0.002522188092370833 
0.003691387434593305 
0.005127773508716156 
0.005565817914146082 
0.002969594674818236 
0.0008531298220586989 
-3.66393807877545e-05 
-0.001110888636561741 
0.004892756206210202 
0.002018877724356242 
0.002622721027122791 
0.001484797337409118 
0.001484797337409118 
0.006354614148844029 
0.0100904964348274 
0.005558236421175056 
0.00250505248159336 
0.01139510844203432 
0.002969594674818236 
0.001484797337409118 
0.002969594674818236 
0.002969594674818236 
-0.01052862739672872 
0.001484797337409118 
0.002018877724356242 
0.001484797337409118 
0.00600453218911551 
-0.005738865145828408 
0.00746908005348908 
0.001484797337409118 
-0.0127436593341263 
0.001484797337409118 
0.001484797337409118 
0.001074147625739311 
0.001484797337409118 
0.002969594674818236 
0.001484797337409118 
0.008538853507923785 
0.0027154476463005 
0.00390364843889903 
0.002233602854834101 
-0.00246756660544194 
0.0007210347373708117 
-0.00103460530603685 
-0.00949059671534937 
0.00250505248159336 
0.01208309274875178 
0.001484797337409118 
-0.001110888636561741 
-4.208489582709459e-05 
0.001484797337409118 
-0.003209459908795382 
-0.0007901355333295399 
0.003174730807647809 
-0.005040302943977086 
-9.47483557755147e-06 
0.002625610905425206 
-0.001162900282621174 
0.010424273819823 
-0.006268626055928591 
0.001484797337409118 
0.001484797337409118 
0.005565817914146082 
0.01160286383971084 
0.00403353226122573 
0.001285943661156386 
-0.003696017471043143 
-0.001615224410127468 
-0.0125661910142535 
-0.001912370371565608 
-0.008570663621622086 
-0.001396138309279638 
0.01584139576270366 
-0.001912370371565608 
-0.001912370371565608 
-0.005785440015276518 
-0.002792189042694276 
-0.001912370371565608 
-0.003439252604801822 
-0.005616164176302405 
0.0004384772677780935 
0.004100969340552258 
0.008454376691117108 
-0.003340338888280499 
0.003760137383519769 
-0.005887010817738719 
-0.008108893597354207 
-0.01091794620371694 
-0.001912370371565608 
-0.001912370371565608 
-0.003824740743131217 
-0.001912370371565608 
0.00249940368826852 
-0.002568759194142077 
-0.001912370371565608 
-0.002587297688088039 
-0.001912370371565608 
-0.001912370371565608 
-0.001912370371565608 
-0.001912370371565608 
-0.001912370371565608 
-0.001912370371565608 
-0.001912370371565608 
-0.001912370371565608 
-0.001094727442745991 
-0.001912370371565608 
-0.001912370371565608 
-0.00213972036999426 
-0.0008921152273813678 
-0.002142495260100045 
-0.0008921152273813678 
-0.001378289984618485 
-0.001912370371565608 
-0.001912370371565608 
-0.001912370371565608 
-0.004436954373817569 
0.0014676452884888 
-0.005887083999584057 
-0.001912370371565608 
-0.004738837192485954 
-0.001912370371565608 
-0.001912370371565608 
-0.001912370371565608 
-0.00503885110770191 
-0.001912370371565608 
-0.001912370371565608 
-0.001912370371565608 
0.0009892194160646915 
-0.001912370371565608 
-0.001912370371565608 
-0.001912370371565608 
-0.001912370371565608 
-0.001912370371565608 
-0.0006410315215633142 
-0.001912370371565608 
0.01961850741947605 
-0.001912370371565608 
-0.009561851857828043 
-0.01107116831439531 
-0.00246607295138503 
-0.001912370371565608 
-0.001378289984618485 
-0.001912370371565608 
-0.001912370371565608 
-0.001756740787723157 
-0.003901075991420691 
-0.007283081351173904 
-0.001912370371565608 
-0.001912370371565608 
-0.001912370371565608 
-0.004111172561165177 
-0.001912370371565608 
-0.001912370371565608 
-0.001912370371565608 
0.00658492292398887 
-0.001378289984618485 
-0.00535162297636743 
0.002619854557213663 
-0.001912370371565608 
-0.001912370371565608 
-0.001912370371565608 
-0.001912370371565608 
-0.003824740743131217 
-0.001912370371565608 
-0.004499668059653648 
0.0007020847206896874 
-0.001912370371565608 
-0.001912370371565608 
0.00116953800484305 
0.01234969037650777 
2.419912125043377e-05 
-0.001190335522512451 
-0.001912370371565608 
-0.00154069486529747 
-0.00337823849796532 
-0.001912370371565608 
-0.001912370371565608 
-0.001912370371565608 
-0.009741203436828555 
-0.0079570451185134 
0.00610636787916339 
0.002316986056629413 
-0.003329766501473359 
-0.008162560615341411 
0.003053183939581695 
0.003053183939581695 
0.004818941841514383 
0.003053183939581695 
0.005596237258659091 
0.003053183939581695 
-0.008285965714934011 
0.005032356072657259 
0.005032356072657259 
0.006348710376492241 
-0.002230276631438329 
0.003053183939581695 
0.008085540012238955 
0.01586110433604323 
0.005658016067560116 
0.003053183939581695 
0.004501051149683659 
0.005318645051286036 
-0.007493325799253294 
0.007251899073247517 
0.003053183939581695 
0.001821189260600765 
0.005544439079010224 
0.003053183939581695 
-0.002749028735762917 
0.01083009026615872 
0.003053183939581695 
0.003053183939581695 
0.003053183939581695 
0.003053183939581695 
-0.0004449723028227431 
0.01102008529336531 
0.00610636787916339 
0.005261105845378121 
0.003337429613528804 
0.002378256623059264 
0.003053183939581695 
-0.007472009871331686 
0.003053183939581695 
0.003053183939581695 
0.003053183939581695 
0.003053183939581695 
0.003663513520281447 
0.003053183939581695 
0.005260296924480556 
0.003053183939581695 
0.005179423724071886 
0.003053183939581695 
0.007183248987335352 
0.003053183939581695 
0.003053183939581695 
0.005738643096366651 
0.003053183939581695 
0.004460330757055372 
0.006082204601025347 
0.003136311630836949 
0.006224832173443358 
0.004628875414433724 
0.002008888444784193 
0.003251578818959944 
0.003053183939581696 
0.005747040706822887 
0.002825833941153045 
0.002329313995424227 
0.008242967651189792 
0.003053183939581695 
0.003053183939581695 
0.003053183939581695 
0.003053183939581695 
-0.001330936286992529 
0.003053183939581695 
-0.002107925395523192 
0.00309474778520932 
0.003053183939581695 
0.003053183939581695 
0.004169990696838857 
0.004147846175917591 
0.003053183939581695 
0.003053183939581695 
0.01169025076020338 
0.003053183939581695 
0.003053183939581695 
0.003053183939581695 
0.004257199908165587 
0.002378256623059264 
0.005685343068884744 
0.003053183939581695 
0.007365584961314932 
0.005496115109245407 
0.003053183939581695 
0.005092416183863734 
0.003053183939581695 
-0.0004449723028227431 
0.005677809654367923 
0.003053183939581695 
0.003053183939581695 
0.004121344713475942 
0.008991295905454211 
0.003053183939581695 
-0.001739641186457361 
0.00492285005690016 
0.003053183939581695 
0.001646721157248884 
0.006348710376492242 
0.006216592126336071 
0.004552612513032571 
-0.00353618789685007 
0.00326378029467438 
0.003053183939581695 
0.003053183939581695 
0.007074790355068896 
0.002691925382649976 
0.009041852874528222 
0.002320249876381838 
0.00345561848518606 
0.003053183939581695 
0.001387216625630531 
-0.002997550090308416 
0.003813329316646109 
0.01128333857421053 
-0.000182219942510004 
0.0006020079842919464 
0.0006020079842919464 
-0.004775625407869877 
0.003859002968793409 
-0.0005630874693105169 
0.007262519490440112 
0.001927095602661666 
0.0006020079842919467 
0.004133377398145855 
0.0006020079842919464 
0.00258859019656586 
0.0006020079842919464 
0.0006020079842919464 
0.01105533229723279 
0.02186995237310942 
-0.0004175202965414318 
-0.02438008171205465 
0.0006020079842919464 
0.0006020079842919464 
-0.0007478466487529163 
0.0006020079842919464 
0.0006020079842919464 
0.009745223157957438 
0.005460797958080817 
0.0006020079842919464 
0.0006020079842919464 
0.001739931674005618 
0.005153702743146634 
0.0006020079842919464 
0.0009627842764133871 
0.00338034283883304 
0.006830700807180547 
0.0006020079842919464 
0.0006020079842919464 
-0.004163876138350226 
-0.001346648790413655 
0.0006435718299195731 
0.00113608837123907 
-0.00380419966208813 
0.000804939612687234 
0.00141644764215118 
0.004105605756214193 
0.0006020079842919464 
0.0005290886520614615 
-0.0005761686605987287 
0.0006020079842919464 
0.0006020079842919464 
-0.009266758838261717 
0.002167935961995596 
0.0006020079842919464 
-0.0226240670728492 
-0.01259733968794129 
0.002408031937167786 
-0.0109220148097134 
0.00180602395287584 
0.0006020079842919464 
0.0282461410621585 
0.004566350780530748 
0.003725480206328231 
0.01681615934451258 
0.003042857574894215 
-0.03639095467113514 
-0.002307430974340992 
0.0006020079842919464 
-0.001946255515243737 
0.001204015968583893 
0.001722574527633758 
-0.001557993641481494 
0.001204015968583893 
0.0006020079842919464 
0.0006020079842919464 
0.0006020079842919464 
0.0006020079842919464 
0.0006020079842919464 
-0.005301087257030471 
-0.00633822780512428 
0.004141946846111308 
-0.008358408218494756 
0.001204015968583893 
0.001204015968583893 
-0.0005073012101422164 
0.006925481214507381 
-0.007577647207491241 
0.0006020079842919464 
0.002101436557742825 
0.0006020079842919464 
0.001340970672344569 
0.0006020079842919464 
-0.001334949724923315 
-0.003681219410178653 
0.04799200447495666 
0.0006020079842919464 
0.003701563227793064 
-0.0005059220946175895 
0.0006020079842919464 
0.0006020079842919464 
9.778774579022938e-05 
0.008306656964883011 
0.005159285873143366 
-0.001849748497888532 
0.003175547196208722 
0.0006020079842919464 
0.00113608837123907 
0.0006020079842919464 
-0.003034543488730654 
-0.002051494202164921 
0.0006020079842919464 
0.001345358996828224 
0.0006020079842919464 
0.001426509241220395 
0.0006020079842919464 
0.0006020079842919464 
0.0006020079842919464 
-0.000924874248944266 
-0.0003228662646523196 
0.002748626486064663 
0.007983296068906496 
0.0006020079842919464 
-0.004768702995316352 
-0.0008593997372761644 
0.001146129984783753 
0.001584013071259836 
0.0006020079842919464 
0.007582735322054464 
0.0006020079842919464 
0.0006020079842919464 
-0.002607033557043234 
0.0006020079842919464 
0.0006020079842919464 
0.003989839585374324 
0.007004544946178195 
0.003599890212772449 
0.003687423698088658 
-0.001314099734133464 
0.002101436557742825 
0.006769667782712279 
0.007197609877478036 
0.0005079369950246887 
-0.01253181014968205 
0.0006020079842919464 
0.0006020079842919464 
0.0006020079842919464 
0.0006020079842919464 
0.0006020079842919464 
-0.004676057419860942 
0.0006020079842919464 
0.0006020079842919464 
-0.0008593997372761644 
0.0006020079842919464 
-0.0001309260789079096 
0.005735722820463004 
-0.000924874248944266 
0.0006020079842919464 
0.0006020079842919464 
0.0006020079842919464 
0.001512586314058325 
-0.000992371555246143 
0.0006020079842919464 
0.0006020079842919464 
0.002992141358039981 
0.02454502448947374 
-0.000150543731184211 
-0.00470279565557504 
-9.259671510992065e-05 
0.001735862216682178 
0.001694298371054552 
0.003079373834702291 
0.002992141358039981 
0.01998693264794966 
0.006380738100149086 
0.01236502081622905 
0.008520517447370425 
0.003579783275770934 
-0.004134509181384936 
0.002992141358039981 
-0.001366444964035776 
0.01393544653353772 
0.003188271778339866 
0.002992141358039981 
0.00200040110886137 
0.002992141358039981 
0.002992141358039981 
0.004463909193200987 
0.001962594806489509 
0.004402952592142916 
0.004402952592142916 
-0.004420349373844583 
0.002992141358039981 
-5.84767795610467e-05 
-0.01657761531994396 
0.004193262523757393 
0.002992141358039981 
-0.00284303956678359 
0.007884097196068194 
0.002992141358039981 
0.001694298371054552 
0.004222791666931359 
-0.001494625131542645 
0.007401012796665534 
0.002992141358039981 
-0.004797362984110553 
0.002744791956676805 
-0.007344755984992733 
-0.005972715233290642 
-0.005755794725447008 
0.002992141358039981 
0.003614546886723377 
0.002992141358039981 
0.002447264211771658 
0.001466948372625902 
0.002992141358039981 
0.001694298371054552 
0.01046490633764525 
0.005984282716079962 
0.002992141358039981 
0.005984282716079962 
0.004852299127833419 
0.002992141358039981 
0.002992141358039981 
0.002537441361182682 
-0.0007403668532646585 
0.002992141358039981 
0.002924948679945936 
0.001694298371054552 
0.002992141358039981 
0.002992141358039981 
0.002992141358039981 
0.0005340803869471235 
0.0005340803869471235 
0.0005340803869471235 
0.006013524242126306 
0.001144409967646875 
0.001068160773894247 
0.002670401934735618 
0.001068160773894247 
0.001068160773894247 
0.003204482321682741 
-0.00054327898011513 
0.0005340803869471235 
0.0005340803869471235 
0.0005340803869471235 
0.0005340803869471235 
0.0005340803869471235 
0.0005340803869471235 
0.00287967256032477 
0.0005340803869471235 
0.0005340803869471235 
0.001068160773894247 
0.0005340803869471235 
0.002136321547788494 
-0.0004587214593419657 
0.001068160773894247 
0.0005340803869471235 
0.001554335531131364 
0.00335570285515299 
0.0005340803869471235 
0.0005340803869471235 
0.0005340803869471235 
-0.02923308207024258 
0.0005340803869471235 
-0.00159437953953809 
0.0005340803869471235 
0.0005340803869471235 
0.0009057558932152623 
0.001602241160841371 
0.008756306898849774 
0.001330920905585696 
0.0005340803869471235 
0.0005340803869471235 
0.0005340803869471235 
-0.0001572898306251064 
-0.00087442873596736 
-0.002898562942342459 
0.0005340803869471235 
0.001068160773894247 
0.0005340803869471235 
0.0005340803869471235 
0.0005340803869471235 
0.0005340803869471235 
-0.004901446401956928 
0.001602241160841371 
0.0005340803869471235 
0.004133775881125299 
0.003108671062262727 
0.001068160773894247 
0.0003352267106943909 
0.0005340803869471235 
0.0005340803869471235 
0.0005340803869471235 
0.005460443141471913 
0.0005340803869471235 
0.0005340803869471235 
0.002136321547788494 
0.001068160773894247 
0.0009057558932152623 
0.008913979876109143 
0.0005340803869471235 
0.0005340803869471235 
-0.003946364175149893 
0.0005340803869471235 
0.001068160773894247 
0.0005340803869471235 
0.0005340803869471235 
0.0005340803869471235 
0.0005340803869471235 
0.0005340803869471235 
0.0005340803869471235 
0.0005340803869471235 
0.0005340803869471235 
0.0005340803869471235 
0.001068160773894247 
0.0005340803869471235 
0.0005340803869471235 
-0.004622659364242887 
-0.005554971076784862 
-0.0008015814229795268 
0.0091458692394714 
0.0005340803869471235 
0.0005340803869471235 
0.004751122425943588 
0.0005340803869471235 
0.0005340803869471235 
-0.0006979142920338066 
0.001068160773894247 
0.002136406202106646 
0.001068160773894247 
-0.004154506688810615 
0.003173755738686988 
0.02574090748249485 
-0.00420466798439358 
-0.002257285153510497 
0.006337259962207724 
0.002740164850555043 
0.0005340803869471235 
-0.006052444133753922 
0.0005340803869471235 
0.003829606823857671 
0.0005340803869471235 
0.0005340803869471235 
0.0005340803869471235 
0.0005340803869471235 
0.0005340803869471235 
0.002670401934735618 
0.0005340803869471235 
0.0005340803869471235 
0.0005340803869471235 
-0.00121999224213504 
-0.0003262387857656686 
0.0005340803869471235 
0.002345592173377646 
0.001452541590388438 
0.004796694651473252 
0.00057564423257475 
-0.00197000346674761 
0.0005340803869471235 
-0.0009273273346209873 
0.001685827956813071 
-0.001411362259424584 
-0.000834110561794012 
0.0002809659765552743 
0.005044876288058604 
0.00151884133446047 
0.0005340803869471235 
-0.005647891354910944 
0.003916435407437595 
-0.001083699361556513 
-0.0003932469476738641 
0.0005340803869471235 
0.001666810942799296 
0.001068160773894247 
0.004642748691025411 
0.0005340803869471235 
0.0005340803869471235 
0.0005340803869471235 
-0.0009273273346209877 
0.0005340803869471236 
-0.0002296822130911827 
0.0005340803869471235 
0.0005340803869471235 
0.001939210016310846 
-0.002257285153510497 
0.0005340803869471235 
0.0005340803869471235 
-0.003025641128225925 
0.0004249159184167396 
0.0005340803869471235 
0.001068160773894247 
0.001068160773894247 
0.0005340803869471235 
0.0005340803869471235 
0.004455925318761662 
0.0005340803869471235 
0.0005340803869471235 
-0.001463101328839335 
0.0005340803869471235 
0.0005340803869471235 
0.0005340803869471235 
0.0005340803869471235 
0.0005340803869471235 
0.0005340803869471235 
0.0005340803869471235 
0.0005340803869471235 
0.0005340803869471235 
0.00595584660834786 
-0.001260302882321492 
0.01096244249736756 
0.007018801842644624 
0.001104150772593512 
0.0005340803869471235 
0.001068160773894247 
0.003890970480328697 
0.000124004910968075 
0.003107393018176283 
0.001068160773894247 
-0.0008015814229795268 
0.003765489119986069 
0.0005340803869471235 
0.0005340803869471235 
0.0005340803869471235 
0.001068160773894247 
0.001068160773894247 
0.02522183969608694 
0.001318995245111028 
0.0005340803869471235 
-0.0113228039451004 
-0.0005621770135728558 
0.01634629516719037 
0.0005340803869471235 
0.0003741610896753662 
0.003969750561524547 
-0.001496696663238163 
0.0005340803869471235 
0.0005340803869471235 
0.001277431399483401 
0.0005340803869471235 
0.0005340803869471235 
-0.004385745079995711 
0.008029792597039837 
0.0005340803869471235 
0.001068160773894247 
-0.007609452439657998 
0.003667626985595085 
0.0005340803869471235 
0.0005340803869471235 
0.0005340803869471235 
0.0005340803869471235 
0.001068160773894247 
0.0005340803869471235 
0.0005340803869471235 
0.0005340803869471235 
0.0005340803869471235 
0.0005340803869471235 
0.00057564423257475 
-0.0009928018462890889 
0.003602066063351841 
0.001602241160841371 
0.0005340803869471235 
-0.000140846929575308 
0.0005340803869471235 
0.005947900646577988 
-0.0004262036746813826 
0.0005340803869471235 
0.0005340803869471235 
0.003863743730449101 
-0.0002139702505553219 
-0.01346115766135728 
0.0005340803869471235 
0.001602241160841371 
0.0005340803869471235 
0.0005340803869471235 
0.001144409967646875 
-0.008472049889786934 
-0.0003932469476738641 
0.0005340803869471235 
0.0005340803869471235 
0.0005340803869471235 
0.0005340803869471235 
0.002660320171437314 
-0.009590947948750332 
0.001068160773894247 
0.0005340803869471235 
0.0005340803869471235 
0.0005340803869471235 
0.003798243861150985 
0.0005340803869471235 
0.004250095538889833 
-0.00118912437961625 
0.001068160773894247 
-0.002429995468510191 
0.001068160773894247 
0.0005340803869471235 
0.0005340803869471235 
0.002136321547788494 
-0.001574000542392535 
-0.006462232097861753 
0.0008326203356071266 
-0.000140846929575308 
0.004021890746041745 
0.0005340803869471235 
0.001063461148928079 
0.0005340803869471235 
0.0005340803869471235 
0.0005340803869471235 
-0.0009928018462890885 
0.0005340803869471235 
-0.009760485712901236 
0.0005340803869471235 
-4.359234955718822e-05 
0.0005340803869471235 
0.001068160773894247 
0.0006172080782023758 
-0.001511813237540751 
0.001672004076660796 
0.0005340803869471235 
0.001717276164561076 
0.001068160773894247 
0.0005340803869471235 
-0.01239113777702172 
0.0005340803869471235 
0.0009057558932152623 
0.0005340803869471235 
0.0005340803869471235 
0.0005340803869471235 
0.0005340803869471235 
0.0005340803869471235 
0.001277431399483401 
0.0005340803869471235 
0.0005340803869471235 
0.0005340803869471235 
0.0005340803869471235 
0.0005340803869471235 
0.0005340803869471235 
0.0005340803869471235 
0.0005340803869471235 
0.0005340803869471235 
0.0005340803869471235 
0.0005340803869471235 
0.0005340803869471235 
-0.002601622358220212 
0.001678490354593998 
0.0005340803869471235 
0.0005340803869471235 
0.001068160773894247 
-0.005024512749662417 
0.006337259962207724 
0.0005340803869471235 
0.0009057558932152623 
0.0005340803869471235 
-0.003628859846461309 
0.0005340803869471235 
0.002187714424957082 
-0.005557734990056787 
0.001650887144204288 
0.0005340803869471235 
-0.001387308261503914 
0.0005340803869471235 
-0.004248417575387323 
0.0009057558932152623 
0.0005340803869471235 
0.006938277886120398 
0.0005340803869471235 
0.0005340803869471235 
0.003829606823857671 
-0.0001408469295753079 
0.0003067303885184739 
0.0005340803869471235 
0.0005340803869471235 
0.0005340803869471235 
0.0005340803869471235 
0.0005340803869471235 
-0.005185691961803723 
0.007264259329275595 
0.0005340803869471235 
0.002329083068522072 
0.0005340803869471235 
0.0005340803869471235 
0.0009261354918917352 
0.0003067303885184735 
0.0005340803869471235 
0.0005340803869471235 
0.0005340803869471235 
0.0003067303885184735 
-0.003404539112033261 
0.0005340803869471235 
0.0005340803869471235 
0.0005340803869471235 
0.0005340803869471235 
-0.001497091104163743 
0.0005340803869471235 
-0.002964075855457314 
-0.0007551606250821149 
0.002033508960398003 
-0.004209904630258641 
0.006701740185367459 
0.001068160773894247 
0.0005340803869471235 
0.0005340803869471235 
0.0005340803869471235 
0.0005340803869471235 
0.0005340803869471235 
0.0005340803869471235 
-0.0006979142920338066 
0.0005340803869471235 
0.005235775665634526 
0.0005340803869471235 
0.0006596637170768352 
0.009338022887466593 
0.0005340803869471235 
-0.00420873850356468 
0.0005340803869471235 
0.0005340803869471235 
0.0005340803869471235 
0.0005340803869471235 
0.0005340803869471235 
0.01329671256156962 
0.004786559955927504 
0.0005340803869471235 
0.0005340803869471235 
0.0005340803869471235 
0.001554335531131364 
0.008462765979424728 
0.004498423183185925 
0.001050507039329461 
0.0005340803869471235 
-0.007501478774309811 
0.0005340803869471235 
-0.004125469661809468 
0.0005340803869471235 
-0.001617779748503637 
-0.007823679405012843 
0.0005340803869471235 
0.0005340803869471235 
0.004498423183185925 
0.001144409967646875 
0.0005340803869471235 
0.001068160773894247 
-0.003489279832491426 
0.001068160773894247 
0.0005340803869471235 
0.0005340803869471235 
0.0005340803869471235 
-0.001910268885252738 
0.0005340803869471235 
-0.009290527282020252 
0.0005340803869471235 
0.0005340803869471235 
0.001068160773894247 
0.001068160773894247 
0.0005340803869471235 
0.001068160773894247 
0.0009057558932152623 
0.0005340803869471235 
0.0005340803869471235 
0.0005340803869471235 
0.001602241160841371 
0.001068160773894247 
-0.0006979142920338066 
0.0005340803869471235 
0.0005340803869471235 
0.0005340803869471235 
0.0005340803869471235 
0.0005340803869471235 
0.0005340803869471235 
0.0005340803869471235 
0.0005340803869471235 
0.0003067303885184735 
0.0005340803869471235 
0.0005340803869471235 
0.001439836280162385 
0.001602241160841371 
0.0005340803869471235 
0.0005340803869471235 
0.0005340803869471235 
-0.0001988536762527326 
0.005315994404578001 
0.0005340803869471235 
0.0005340803869471235 
0.0005340803869471235 
0.0005340803869471235 
0.0005340803869471235 
0.0005340803869471235 
0.0005340803869471235 
0.0005340803869471235 
0.0005340803869471235 
0.0005340803869471235 
0.0005340803869471235 
0.0005340803869471235 
0.0005340803869471235 
0.0005340803869471235 
0.0005340803869471235 
-0.0002139702505553219 
0.0005340803869471235 
0.0005340803869471235 
0.0005340803869471235 
0.0009057558932152623 
0.0005340803869471235 
-0.004741016602021465 
0.0005340803869471235 
0.0005340803869471235 
0.00127451201296998 
-0.01091603556032181 
-0.004119282582425389 
0.0005426823619033147 
-0.0002273499984286499 
-9.355285487307977e-05 
-0.001688757719996761 
0.003715793455264595 
-0.001277117623199006 
0.000494684850624508 
6.359692096473424e-05 
-0.0008623524750642094 
-0.001916107718425412 
-0.00113674999214325 
0.0005087740070403559 
-0.0006820499952859495 
-0.0006820499952859495 
0.001751822134646914 
-0.0004851847567081119 
-0.000515438493893289 
-0.0002273499984286499 
-0.00784238059176131 
-0.0002273499984286499 
-0.0002273499984286499 
0.0001154121482952863 
-0.0002273499984286499 
-0.0002273499984286499 
-0.0002273499984286499 
-0.0002273499984286499 
-0.0002273499984286499 
-0.0002273499984286499 
-0.0002273499984286499 
-0.0002273499984286499 
-0.0002273499984286499 
0.0001443255078394886 
0.001344397811612389 
0.003890214856798861 
0.001606768716913788 
-0.0006820499952859495 
-0.00802922651173461 
-0.004485827251491522 
-0.0002273499984286499 
0.005772404079104497 
0.002854558377980007 
-0.0002273499984286499 
0.00127207857502223 
0.0005391445118223737 
-0.0002273499984286499 
0.0001443255078394886 
-0.0004546999968572998 
-0.0004546999968572998 
0.0002174955693065672 
-0.0004546999968572998 
-0.0004546999968572994 
-0.0004546999968572994 
-0.0002273499984286499 
-0.0002273499984286499 
-0.0002273499984286497 
-0.0002273499984286499 
-0.0002273499984286499 
-0.0002273499984286499 
-0.0009022773149510812 
-0.0002273499984286499 
0.0009504296325064237 
-0.0002273499984286499 
-0.0003465543225821298 
-0.0002273499984286499 
-0.0002273499984286499 
-0.0006820499952859495 
0.0005486003136054335 
-0.0002273499984286499 
-0.0002273499984286499 
-0.0002273499984286499 
-0.0002273499984286499 
-0.0002273499984286499 
-0.002314246079286239 
-0.0002273499984286499 
-0.0002273499984286499 
-0.004934823257311679 
-0.0002273499984286499 
0.003736992797810152 
-0.0002273499984286499 
-0.0002273499984286499 
-0.0002273499984286499 
-0.0004720380203190944 
-0.0002273499984286499 
0.0009105736912850223 
-0.0002273499984286499 
-0.001270026130555271 
-0.0002273499984286499 
-0.0002273499984286499 
-0.00949232977293606 
-0.0002273499984286499 
-0.0002273499984286499 
-0.0015630118083553 
-0.0002273499984286499 
-0.003725506240833088 
-0.0015630118083553 
-0.001697276279992278 
-0.001553415666676838 
-0.0002273499984286499 
-0.002991137081678418 
-0.0002273499984286499 
0.02203681002737979 
-0.0002273499984286499 
-0.0002273499984286499 
-0.001688757719996761 
-0.0002273499984286499 
-0.0002273499984286499 
0.00127207857502223 
0.0006723232470971091 
-0.004888663294281076 
0.00245348700751251 
-0.0002273499984286499 
-0.0002273499984286499 
0.0001443255078394886 
-0.0002273499984286499 
0.00147047345440048 
0.001003300310462733 
-0.00237921013387941 
-0.0002273499984286499 
-0.0002273499984286499 
-0.0015630118083553 
-0.0004546999968572998 
-0.0002273499984286499 
-0.001906921995503361 
-0.00123199467898093 
-0.007206808248473666 
0.00192369975453957 
-0.00246398935796186 
-0.00123199467898093 
-0.00123199467898093 
-0.00123199467898093 
-0.008126121043112205 
-0.002092313851693722 
-0.0008603191727127913 
0.01382383909865918 
-0.00123199467898093 
-0.0008603191727127913 
-0.00246398935796186 
0.001498084203361332 
-0.00123199467898093 
-0.003765990225155644 
-0.005507050404505904 
0.001879908009946805 
-0.00123199467898093 
-0.00123199467898093 
-0.000768998305789689 
-0.00123199467898093 
-0.00123199467898093 
-0.002488273820338734 
-0.00123199467898093 
-0.00123199467898093 
-0.009850266494390952 
-0.00123199467898093 
-0.00123199467898093 
-0.001980045316483376 
-0.001980045316483376 
-0.005683683134337781 
-0.00123199467898093 
-0.00123199467898093 
-0.00612786897558922 
-0.00123199467898093 
-0.0008603191727127913 
-0.00123199467898093 
-0.00123199467898093 
-0.00123199467898093 
-0.00123199467898093 
-0.00123199467898093 
-0.001906921995503361 
-0.008748950143863142 
-0.00123199467898093 
-0.007949065377209808 
-0.003914083639185217 
-0.00123199467898093 
-0.006874023445900294 
-0.00123199467898093 
-0.00123199467898093 
-0.00123199467898093 
-0.0008603191727127913 
-0.00269340240054904 
-0.00246398935796186 
-0.00123199467898093 
-0.003487927521891682 
-0.00372459288968894 
-0.008700181876056187 
-0.0008603191727127913 
-0.00123199467898093 
-0.002529837665966359 
0.0001152445243280057 
0.002246606027545515 
0.004612072416516615 
-0.001117242029438706 
-0.009635761608092598 
-0.00123199467898093 
-0.00123199467898093 
0.003922430938053063 
-0.0007846936116417986 
-0.00123199467898093 
-0.00123199467898093 
-0.00123199467898093 
0.0008951697994359512 
-0.00123199467898093 
-0.00123199467898093 
-0.00338385481443169 
-0.00123199467898093 
-0.00123199467898093 
0.02654731978057578 
-4.216282423753119e-05 
-1.084202172485504e-19 
-0.002103739169988828 
0 
0 
-0.002578733714365408 
0 
-0.0006740242305516697 
-0.00227686522671949 
-0.00129784298698543 
-0.0006749273165224314 
0 
0.001740332328536081 
-5.421010862427522e-20 
0 
-0.002194341784767967 
0 
0 
-0.002699709266089726 
0.001230650308891383 
0 
-0.01495375364707078 
0.003099984667008551 
0.009048243967560448 
-0.0100741128902569 
0.0003716755062681384 
0.001732088107106151 
-0.00824453365900742 
0 
0 
0.001132730555852173 
0 
0 
0 
0.00771829412230585 
0 
0 
-0.005328101838684668 
0 
-0.003498156242404438 
0 
0 
0 
-0.006396284654376961 
0 
0 
0 
-0.0006749273165224314 
-0.001349854633044863 
-0.02141084112416393 
-0.003498156242404438 
-0.01399262496961775 
-0.02179293161037879 
0 
0.002778985305130193 
-0.00215186013545076 
-0.002381349485147276 
0 
0 
0 
0 
-0.002708104748653575 
-0.0006875134062856778 
0 
8.312769125525255e-05 
0.00224242722150929 
0 
0 
-0.008618271815410016 
0 
4.156384562762606e-05 
4.156384562762606e-05 
0 
-0.004140060670716915 
-2.168404344971009e-19 
0.00313388764827891 
0 
-5.421010862427522e-20 
-0.000732934063199856 
0 
0 
0 
0.0221311385939719 
-0.002470994437087981 
0 
-0.001175011476561768 
0 
-0.000732934063199856 
0 
0 
0 
0 
0 
0.003081908376408658 
0 
0.0003716755062681385 
0.007998258988223712 
-0.00232637373110149 
-0.005211055574647103 
0.0003716755062681384 
-0.007661096475812867 
0 
0 
0 
0.00212623978449019 
-0.005354936682524399 
0.003842282304442939 
0 
0.0003716755062681384 
-0.0006749273165224314 
0 
0 
0.001486702025072554 
0 
0.001179487535341299 
0 
0.0003716755062681385 
0.001220659161399503 
0 
0 
-0.0001160709991332793 
4.156384562762665e-05 
0.006366054677798584 
0.006366054677798584 
0 
0 
0.005724672014635872 
0 
0.001630630774735083 
0 
0 
0.0004825996713889377 
0 
-0.001407861379722287 
0 
0 
-0.007598016671225777 
0 
-0.009916114802395442 
0 
-0.00279136554045762 
0 
0 
0 
0 
0 
0.004117564855227511 
0.004117564855227511 
0.004117564855227511 
0.004117564855227511 
0.004117564855227511 
0.004117564855227511 
0.004117564855227511 
-0.002878747629581365 
0.004117564855227511 
0.002024538242186796 
0.004117564855227511 
0.01263607229299155 
0.004117564855227511 
0.004117564855227511 
0.004117564855227511 
0.004117564855227511 
0.004117564855227511 
0.004117564855227511 
0.006477769174000407 
-0.004062090336555677 
0.004117564855227511 
0.007568886377698926 
0.004117564855227511 
-0.0002410214668482459 
0.004117564855227511 
0.004117564855227511 
0.001063800388755086 
0.004550033450879814 
0.004117564855227511 
0.004117564855227511 
0.0009194225280390305 
0.004117564855227511 
0.004117564855227511 
-0.002945283579298513 
0.004117564855227511 
0.004117564855227511 
0.004117564855227511 
0.005348215164118892 
-0.0006252540352842915 
-0.02331909334365906 
0.004117564855227511 
0.002590682621991297 
0.004117564855227511 
0.00530163163622067 
-0.001786409121591742 
0.004117564855227511 
0.001220659161399503 
0.001220659161399503 
0.009175752959105441 
-0.002181035959757868 
0.0006103295806997516 
0.0006103295806997516 
0.0006103295806997516 
-0.006116324793867227 
-0.00241499039628677 
0.0006103295806997516 
0.004574672376938553 
0.0006103295806997516 
0.002736569365189941 
-0.0009165526525364607 
0.0006103295806997516 
0.0006103295806997516 
-0.005611676436806997 
0.0006103295806997516 
0.0006103295806997516 
0.0006103295806997516 
0.0006103295806997516 
-0.005376133403716412 
0.004885050007089939 
0.0006103295806997516 
0.0006103295806997516 
-0.0111087417890435 
-0.0008510781408683593 
0.003484940161638581 
0.0006103295806997516 
-0.008007942234710267 
0.003071630198482518 
0.0009820050869678901 
0.0006103295806997516 
0.0006103295806997516 
0.0006103295806997516 
0.0006103295806997516 
0.0006103295806997516 
0.01807128128736298 
0.00515335198563117 
0.001727136337956916 
0.001748253270413425 
0.0006103295806997516 
0.0006103295806997516 
0.0006103295806997516 
0.001000202632910979 
0.003692237957108409 
0.0006103295806997516 
-0.0001377210568026938 
0.001220659161399503 
0.0006103295806997516 
-0.0008510781408683593 
-0.0009165526525364607 
0.001220659161399503 
0.0006103295806997516 
0.001434801355454285 
0.004319977724208699 
0.0006103295806997516 
0.0008087244600780021 
-0.002181035959757868 
0.001743060136551924 
0.0006103295806997516 
-0.0001495999042986297 
0.001332364429752909 
0.013174566875944 
0.01402485518164962 
0.005270744255283398 
-0.0002339516720486202 
0.001592334667667642 
0.0006436120289447454 
-0.0006571436663217099 
0.007288678113718279 
0.0008087244600780021 
-0.007611152475953767 
0.02898661755674446 
0.007167862431331317 
0.0006103295806997516 
0.0006103295806997516 
0.0006103295806997516 
0.0009820050869678901 
0.0006103295806997516 
0.02664770946829021 
0.0006103295806997516 
-0.002759250708553539 
-0.001378280030312858 
-0.00994710351757273 
-0.001461407721568111 
-0.0006071325439110346 
-0.00285334762369915 
-0.001461407721568111 
-0.006832118701176407 
0.001225562431562664 
-0.001461407721568111 
0.002502935074670692 
3.802085188276891e-05 
-0.001461407721568111 
-0.001461407721568111 
-0.001461407721568111 
-0.001461407721568111 
-0.001461407721568111 
-0.001461407721568111 
3.802085188276891e-05 
-0.001461407721568111 
-0.001461407721568111 
-0.001461407721568111 
-0.002797069531494762 
0.001348851537159336 
-0.0007393728725149527 
-0.001461407721568111 
-0.001461407721568111 
-0.001461407721568111 
0.006989886322614715 
-0.005012628112221069 
-0.001461407721568111 
-0.001461407721568111 
-0.001461407721568111 
-0.01007967953697813 
-0.0002307574126767279 
-0.009641062913351301 
-0.001734941472110848 
-0.002922815443136222 
-0.003978826191575864 
-0.001461407721568111 
-0.001461407721568111 
0.003884782202733564 
0.001087327202248495 
-0.001461407721568111 
-0.001461407721568111 
-0.0003234840318544385 
-0.001461407721568111 
-0.002922815443136222 
-0.001461407721568111 
-0.001461407721568111 
-0.001461407721568111 
-0.002973411930601399 
0.004159110795886784 
-0.002922815443136222 
0.009018402371550608 
-0.001461407721568111 
-0.0007393728725149527 
-0.002922815443136222 
-0.001461407721568111 
-0.002988289954804324 
-0.001461407721568111 
-0.001461407721568111 
-0.003287794791757157 
-0.001461407721568111 
-0.003002558121523902 
-0.001461407721568111 
-0.001461407721568111 
-0.003513199538770188 
-0.001461407721568111 
-5.059648746517757e-05 
-0.001461407721568111 
-0.005128627552342499 
-0.001461407721568111 
-0.001461407721568111 
-0.02004524719473945 
-0.004252773262025731 
-0.001461407721568111 
-0.00495956396397255 
-0.002530486089211323 
-0.002605014093906828 
-0.00858025096352725 
-0.002988289954804323 
-0.001461407721568111 
-0.001461407721568111 
-0.001461407721568111 
-0.001461407721568111 
-0.007403519060568402 
-0.003597742759658653 
-0.002136335038090542 
-0.002136335038090542 
-0.001461407721568111 
-0.001064617962811611 
-0.001461407721568111 
-0.001461407721568111 
-0.0009854743716603469 
-0.001263012842189861 
-0.006697762184085228 
-0.0056400503584633 
-0.006880372038959125 
-0.001461407721568111 
-0.001461407721568111 
-0.001461407721568111 
-0.00477901672443339 
-0.001461407721568111 
-0.002209458359070556 
-0.00495956396397255 
-0.001764659531822403 
-0.0002307574126767279 
0.0007161592908857026 
-0.001461407721568111 
-0.00129784298698543 
-0.002595685973970859 
-0.006489214934927147 
-0.003363254758321738 
-0.002595685973970859 
-0.00129784298698543 
-0.00129784298698543 
-0.00129784298698543 
-0.00129784298698543 
-0.00129784298698543 
-0.00129784298698543 
-0.001222693562809147 
1.741191701949295e-05 
-0.00129784298698543 
-0.00129784298698543 
-0.01564998003547946 
-0.0004694461894806687 
-0.00200432977886025 
-0.00129784298698543 
-0.004089208527443052 
0.002954636581994952 
-0.004351607453457853 
-0.002045893624487874 
-0.00129784298698543 
0.002897050995809476 
0.002613400337023929 
0.0008283967975047609 
-0.00129784298698543 
-0.00129784298698543 
-0.002595685973970859 
-0.00129784298698543 
0.0006813291460901335 
-0.003383195251238672 
0.0006145663292835852 
-0.00129784298698543 
-0.0005867073520789696 
-0.00129784298698543 
-0.00129784298698543 
-0.00129784298698543 
-0.00449598531417391 
-0.00129784298698543 
-0.002633504796912078 
-0.00129784298698543 
-0.00129784298698543 
-0.00129784298698543 
-0.00129784298698543 
-0.00129784298698543 
-0.0005758081379322715 
-0.00129784298698543 
-0.00129784298698543 
-0.00129784298698543 
-0.005191371947941718 
-0.01086204567459624 
0.01059518540173098 
-0.01087446274342499 
-0.0009261674807172909 
-0.00129784298698543 
-0.00129784298698543 
-0.00129784298698543 
-0.00129784298698543 
0.003881771879457344 
0.00170101415991633 
-0.00129784298698543 
-0.002595685973970859 
-0.00129784298698543 
-0.00129784298698543 
-0.00129784298698543 
-0.00129784298698543 
-0.002595685973970859 
-0.00129784298698543 
-0.002595685973970859 
-0.00129784298698543 
-0.00129784298698543 
-0.002647697620030293 
-0.00129784298698543 
0.0002015855864654502 
-0.00129784298698543 
-0.00129784298698543 
-0.00109944810760718 
-0.0001810362297282656 
-0.00129784298698543 
-0.00129784298698543 
-0.00129784298698543 
0.02022296602628672 
-0.00129784298698543 
-0.00129784298698543 
-0.00129784298698543 
-0.00129784298698543 
-0.00129784298698543 
-6.719267809404672e-05 
-0.001774375424129611 
-0.00129784298698543 
-0.00129784298698543 
-0.00129784298698543 
-0.00129784298698543 
-0.002793944261990319 
-0.00129784298698543 
0.0001129682471175037 
0.01036254929333281 
-0.00129784298698543 
-0.00129784298698543 
-0.00129784298698543 
-0.01527975911929215 
-0.009485637781023605 
-0.0004219196691736464 
0.0149906590296748 
-0.004742818890511803 
-0.004742818890511803 
-0.01422845667153541 
-0.01422845667153541 
-0.01422845667153541 
-0.01422845667153541 
-0.004742818890511803 
-0.004742818890511803 
-0.01422845667153541 
-0.004742818890511803 
-0.006894679025962561 
-0.004742818890511803 
-0.01422845667153541 
-0.004742818890511803 
-0.005898025617479874 
-0.008905759123920229 
-0.004742818890511803 
-0.003140493075352282 
-0.004742818890511803 
-0.004742818890511803 
-0.004742818890511803 
-0.004742818890511803 
-0.004742818890511803 
-0.004742818890511802 
-0.00985146492003303 
-0.004742818890511803 
-0.003722563746327561 
-0.007534184430969426 
-0.009485637781023605 
-0.009485637781023605 
-0.01124242220124068 
-0.004742818890511803 
-0.01259143096834031 
-0.004742818890511803 
-0.004742818890511803 
-0.00254320099208004 
-0.004742818890511803 
-0.003722563746327561 
-0.004742818890511803 
-0.004742818890511803 
-0.005460467582894082 
-0.004742818890511803 
-0.003722563746327561 
-0.004742818890511803 
-0.01088873630567311 
-0.005417746207034231 
-0.004742818890511803 
-0.005417746207034233 
-0.004742818890511803 
-0.004742818890511803 
-0.004742818890511803 
-0.004742818890511803 
-0.0002445331701591634 
-0.004742818890511803 
-0.004742818890511803 
-0.008398161050233227 
-0.004742818890511803 
0.00593751639922669 
0.001979172133075563 
0.00527469856998611 
0.003958344266151126 
0.001979172133075563 
0.007253870703061674 
0.001979172133075563 
0.00527469856998611 
0.001760317080406077 
0.002350847639343701 
0.001979172133075563 
0.001979172133075563 
0.001979172133075563 
0.001979172133075563 
0.001979172133075563 
0.002701206982128721 
-0.01159168012378145 
0.001979172133075563 
0.008881160369722176 
0.003958344266151126 
0.001979172133075563 
0.002350847639343701 
0.003095978890332727 
0.007751586948753201 
0.001979172133075563 
0.001979172133075563 
0.001979172133075563 
0.003588378246556745 
0.001979172133075563 
0.001979172133075563 
0.001979172133075563 
0.004205834604183431 
0.001979172133075563 
0.001979172133075563 
0.003958344266151126 
0.001979172133075563 
0.002350847639343701 
0.001979172133075563 
0.001979172133075563 
0.007735999187768874 
0.001979172133075563 
0.003958344266151126 
0.001979172133075563 
0.001979172133075563 
0.001979172133075563 
0.002701206982128721 
0.003837549664416255 
0.001979172133075563 
0.001979172133075563 
0.00297460462445862 
0.001345808662180759 
0.001979172133075563 
0.001979172133075563 
0.005061080509484221 
0.002020735978703189 
0.001979172133075563 
0.001979172133075563 
0.001979172133075563 
0.001979172133075563 
0.001979172133075563 
-0.006954748639181251 
0 
0 
0 
0 
0.01369696785109642 
0.001230650308891383 
-0.0007329340631998561 
0 
-0.004131519713299241 
4.156384562762638e-05 
0 
-0.0006749273165224313 
-0.02414883225288275 
-5.421010862427522e-20 
0 
0 
-0.002529576748384384 
0 
0 
-1.084202172485504e-19 
-0.0003490613691425482 
0 
0 
-0.0009708307609702952 
-5.421010862427522e-20 
0.004115663904158923 
0 
0 
0 
0 
-0.0007329340631998561 
0 
0 
0 
0 
0 
0 
0 
0 
0 
-0.0007585544141604256 
-0.008665265547074209 
0 
-0.002151860135450759 
0.006167659798420337 
0 
0 
-0.004837867549930864 
-0.0006749273165224314 
-0.001349854633044863 
0 
0.00149942857345088 
-0.0006749273165224314 
-0.004725024560424693 
0.002265629042501203 
-0.005350002462639241 
-0.007071211970899392 
-0.008192399844597806 
-0.006396284654376961 
-0.00319814232718848 
-0.00319814232718848 
-0.006396284654376961 
-0.01055922488778539 
-0.00319814232718848 
-0.00319814232718848 
-0.0059895078676461 
-0.01055922488778539 
-0.00319814232718848 
-0.00319814232718848 
-0.00319814232718848 
-0.002476107478135323 
-0.00319814232718848 
-0.006396284654376961 
-0.00319814232718848 
-0.005350002462639241 
-0.00319814232718848 
-0.01035394976997091 
-0.00319814232718848 
-0.00319814232718848 
-0.005350002462639241 
-0.00319814232718848 
-0.00319814232718848 
-0.00319814232718848 
-0.00319814232718848 
-0.007371225886115353 
-0.00319814232718848 
-0.00319814232718848 
-0.00319814232718848 
-0.01393330716240704 
-0.00319814232718848 
-0.00319814232718848 
-0.003873069643710912 
-0.00319814232718848 
-0.00319814232718848 
-0.001787331093085547 
-0.006396284654376961 
-0.02042510849489259 
-0.00319814232718848 
-0.01221801295970449 
-0.00319814232718848 
-0.00319814232718848 
-0.00319814232718848 
-0.00319814232718848 
-0.00319814232718848 
-0.00319814232718848 
-0.00319814232718848 
-0.004240818459315098 
-0.004240818459315098 
-0.00319814232718848 
-0.00319814232718848 
-0.005869465947041779 
-0.006396284654376961 
-0.002081335569931316 
-0.00319814232718848 
-0.006396284654376961 
-0.00319814232718848 
-0.001754072629082164 
-0.00319814232718848 
-0.00319814232718848 
-0.00319814232718848 
-0.00319814232718848 
-0.006396284654376961 
-0.00319814232718848 
-0.00319814232718848 
-0.00319814232718848 
-0.00319814232718848 
-0.0001162339507798224 
-0.00319814232718848 
-0.00319814232718848 
-0.00319814232718848 
-0.00319814232718848 
-0.00319814232718848 
0.006167659798420336 
0.01523690938447097 
0.00543472573522048 
5.228905612750386e-05 
0.003968857608820765 
0.0017700554192212 
0.00543472573522048 
0.006167659798420336 
0.01266967668051005 
0.0137461308309436 
0.01574909066598168 
0.01160238553364082 
0.006167659798420336 
0.006167659798420336 
0.006167659798420336 
0.006167659798420336 
0.006167659798420336 
0.01042674566606662 
0.006167659798420336 
-0.002206436822952525 
0.006167659798420336 
-0.003069888733178162 
0.004671558523415446 
0.006961170962023097 
0.0001983948793782501 
-0.0005345391838216057 
-0.001261845225848947 
0.0001983948793782501 
0.003059040629217346 
-0.00239457578170112 
0.0003967897587565003 
0.0009204297284314084 
0.0001983948793782501 
0.0009244628546601258 
0.0001983948793782501 
0.004215956165341954 
-0.003299761363026188 
0.0001983948793782501 
0.0001983948793782501 
0.0001983948793782501 
0.0001983948793782501 
0.0127626321746225 
0.0001983948793782501 
0.0002553039724639787 
-0.000549655758124195 
0.0001983948793782501 
0.0001983948793782501 
0.0001983948793782501 
0.0003967897587565003 
0.001534713448470173 
0.0001983948793782501 
0.001260213869190117 
-0.0004765324371441811 
0.0001983948793782501 
0.0001983948793782501 
0.0001983948793782501 
0.002463855991082595 
0.0001983948793782501 
0.0001983948793782501 
0.0001983948793782501 
0.003259160311930972 
0.001022896136306699 
0.001068792099794796 
-0.000549655758124195 
0.0001983948793782501 
0.0001983948793782501 
-0.001446224309385155 
0.0001983948793782501 
-0.0008442812527483717 
0.0001983948793782501 
-0.001068332062411361 
0.0001983948793782501 
0.0001983948793782501 
0.0001983948793782501 
0.0001983948793782501 
0.0001983948793782501 
0.0002399587250058765 
0.0004383536043841267 
0.0003230864162611286 
-0.004058524973592177 
-0.00259297066107937 
-0.01059304965949224 
0.0001983948793782501 
-0.0004765324371441811 
0.0001983948793782501 
-0.0004765324371441811 
0.0001983948793782501 
-0.0005345391838216057 
-0.0004765324371441811 
-0.0004765324371441811 
-0.001151459753666613 
-0.001151459753666613 
-0.001151459753666613 
-0.004794780210838014 
-0.003267897977601802 
-0.005058624747230869 
0.0001983948793782501 
-0.001151459753666613 
0.0001983948793782501 
0.0001983948793782501 
0.0001983948793782501 
0.0001983948793782501 
0.0001983948793782501 
-0.0004765324371441811 
-0.0004765324371441811 
0.002048525724437493 
-0.0005512384990903928 
0.006805994131572098 
0.001116806757257164 
0.001118109462627744 
0.002233613514514328 
0.002233613514514328 
-0.001290686089143148 
0.003447487640566382 
0.0005909023285038897 
0.001127385291720664 
0.003504164696888349 
0.007817647300800149 
0.001116806757257164 
0.005429365442557206 
0.001116806757257164 
0.001116806757257164 
0.002233613514514328 
0.001116806757257164 
0.001116806757257164 
-0.01631753853104586 
0.002233613514514328 
0.001145364809335938 
0.003350420271771492 
0.001116806757257164 
0.002233613514514328 
0.00419741728322249 
0.002233613514514328 
0.0003687561197547187 
0.004487339410427064 
0.0003687561197547187 
0.001116806757257164 
0.001116806757257164 
0.001116806757257164 
-0.006303416848771707 
0.001116806757257164 
0.003406813305271582 
0.001116806757257164 
0.001116806757257164 
-0.006490701283177627 
0.002347457066148547 
0.006700840543542985 
0.001860157769793441 
0.002385204974211118 
0.001116806757257164 
0.002233613514514328 
0.001116806757257164 
0.001116806757257164 
0.001116806757257164 
-0.0002188550526694866 
0.001116806757257164 
0.001116806757257164 
0.001116806757257164 
0.001116806757257164 
0.001142730525198375 
0.008452686757723964 
0.001116806757257164 
0.001116806757257164 
0.001116806757257164 
0.001158370602884791 
0.001116806757257164 
0.000383872694057308 
0.008710077590561093 
0.001116806757257164 
0.001116806757257164 
0.003243046541747354 
0.001116806757257164 
0.001116806757257164 
0.0003687561197547187 
0.003450664496163377 
0.001116806757257164 
0.001116806757257164 
0.002233613514514328 
0.001116806757257164 
-0.0003061711967677127 
0.000383872694057308 
0.001116806757257164 
0.001116806757257164 
0.0003687561197547187 
0.001116806757257164 
0.001116806757257164 
0.002233613514514328 
0.001116806757257164 
0.0003687561197547187 
0.001116806757257164 
0.001116806757257164 
0.000383872694057308 
0.001116806757257164 
0.01036253188648314 
0.001116806757257164 
0.001116806757257164 
0.007495526110727736 
0.001116806757257164 
0.001116806757257164 
0.001116806757257164 
0.002254730446970836 
0.001116806757257164 
0.001116806757257164 
0.005135203302144623 
0.005012500934044242 
0.002233613514514328 
0.001116806757257164 
0.001116806757257164 
0.00441233319416771 
0.005631805182070846 
0.001116806757257164 
0.001116806757257164 
0.002233613514514328 
0.001116806757257164 
-0.005879505727551713 
0.001116806757257164 
0.0043900720511556 
0.001116806757257164 
0.002249537313109338 
0.001116806757257164 
0.001116806757257164 
0.001116806757257164 
0.002249537313109338 
0.003392654136684508 
0.001116806757257164 
-0.007062848434526024 
0.001116806757257164 
0.001116806757257164 
0 
0 
-1.084202172485504e-19 
0 
0 
0 
0.001137923689713672 
0 
0 
-0.01192079790886584 
0 
0 
0 
-0.001335661809926651 
0.0007766651327819549 
-0.00419820585308951 
0 
0.002910239807553812 
0 
-0.008618271815410018 
0 
0 
0 
0 
0 
0.003269724889606612 
0 
4.156384562762634e-05 
-0.003121430463132475 
0.0003716755062681385 
-0.002671323619853302 
0 
0.00189501210483434 
-0.001335661809926651 
-0.01857220544074668 
-0.01212660203368814 
0 
0 
0 
0 
1.084202172485504e-19 
0 
0 
0 
0 
0 
0 
0.003964342796238802 
-0.002791365540457621 
0 
-0.006954305773866057 
0 
0 
0 
1.084202172485504e-19 
0 
0 
0 
0 
0 
0 
-0.002085352264253244 
0 
0 
0 
0.007928685592477605 
0.003964342796238802 
0.007928685592477605 
0.003964342796238802 
0.003964342796238802 
0.007253758275955172 
0.003964342796238802 
0.008300361098745743 
0.007928685592477605 
0.003964342796238802 
-0.009746859683493547 
0.003964342796238802 
0.007789602185183738 
0.003964342796238802 
0.003964342796238802 
0.009339496826580538 
0.003964342796238802 
0.003603084239307085 
0.003964342796238802 
0.003964342796238802 
0.007928685592477605 
0.003964342796238802 
0.003964342796238802 
0.003964342796238802 
0.003964342796238802 
0.005369472425602526 
0.003964342796238802 
0.006865932583869104 
0.003964342796238802 
0.002310900945494855 
0.003964342796238802 
0.005463771369689683 
0.003964342796238802 
0.003964342796238802 
0.003964342796238802 
0.00243746056300259 
0.003964342796238802 
0.003964342796238802 
0.003964342796238802 
0.009767522371499398 
0.003964342796238802 
0.003964342796238802 
0.003964342796238802 
0.007928685592477605 
0.007046251172647459 
0.004686377645291961 
0.003964342796238802 
0.003964342796238802 
0.003964342796238802 
0.004040419607803878 
-0.009727974216962294 
0.00149942857345088 
0.002910239807553813 
0.004498285720352642 
-0.002155913586270547 
0.00149942857345088 
0.00149942857345088 
0.00149942857345088 
0.00149942857345088 
0.00149942857345088 
0.01277172890168838 
0.00149942857345088 
0.00149942857345088 
-1.345172762473937e-05 
0.00149942857345088 
0.001540992419078506 
0.001871104079719018 
0.001871104079719018 
-0.0006290313530343335 
0.001871104079719018 
0.002221463422504039 
0.00149942857345088 
0.00149942857345088 
0.00149942857345088 
0.00149942857345088 
0.00149942857345088 
0.00149942857345088 
0.0008469970114509994 
0.00149942857345088 
0.00149942857345088 
0.00149942857345088 
0.00149942857345088 
0.00149942857345088 
0.00149942857345088 
0.00149942857345088 
0.00149942857345088 
0.00149942857345088 
0.00149942857345088 
0.00149942857345088 
0.00149942857345088 
0.0001637667635242292 
0.00149942857345088 
0.00149942857345088 
0.0008469970114509994 
0.00149942857345088 
0.0008245012569284484 
0.00149942857345088 
0.00149942857345088 
0.00149942857345088 
0.00149942857345088 
0.00149942857345088 
0.00149942857345088 
0.00149942857345088 
0.00149942857345088 
0.00149942857345088 
0.00149942857345088 
0.00149942857345088 
0.00149942857345088 
0.00149942857345088 
0.006435927616668512 
0.00149942857345088 
0.00149942857345088 
0.00149942857345088 
0.00149942857345088 
0.002637352263164553 
0.00149942857345088 
0.003359387112217708 
0.0001143196595019436 
0.00149942857345088 
0.00149942857345088 
0.00149942857345088 
0.00149942857345088 
0.00149942857345088 
0.00149942857345088 
0.00149942857345088 
0.00149942857345088 
0.00149942857345088 
0.00149942857345088 
0.00149942857345088 
0.00149942857345088 
0.00149942857345088 
0.00149942857345088 
0.00149942857345088 
0.00149942857345088 
0.00149942857345088 
0.00149942857345088 
0.005227994173100587 
-0.00129193696700674 
0.00149942857345088 
-0.008454505051885792 
0.00149942857345088 
0.00149942857345088 
0.00149942857345088 
0.00149942857345088 
0.00149942857345088 
0.00149942857345088 
0.00149942857345088 
0.00149942857345088 
0.00149942857345088 
-0.001536132712149023 
0.00149942857345088 
-0.0006290313530343335 
0.00149942857345088 
0.00149942857345088 
0.003081908376408658 
0.003803943225461816 
0.003081908376408658 
0.002375421584533838 
0.0004105847565553569 
0.004894702011941127 
0.003898145899785713 
0.008744765257374157 
0.002440625810261731 
0.006163816752817316 
0.004678498365208732 
0.003081908376408658 
0.01137196491371617 
0.003081908376408658 
0.003081908376408658 
0.003081908376408658 
0.003081908376408658 
0.003803943225461816 
0.003081908376408658 
0.003081908376408658 
0.003081908376408658 
0.003081908376408658 
0.003081908376408658 
0.003081908376408658 
0.003081908376408658 
0.006351633266015269 
0.003081908376408658 
0.003081908376408658 
0.003081908376408658 
0.006163816752817316 
0.0003589665319648835 
0.003081908376408658 
0.01731865483265258 
0.007121421853752629 
0.003081908376408658 
0.003081908376408658 
0.003081908376408658 
0.003081908376408658 
0.003081908376408658 
-0.001155298747476151 
0.003081908376408658 
0.0006275014611902112 
0.003681265927662635 
0.002333857738906214 
0.003081908376408658 
0.003081908376408658 
0.003081908376408658 
0.003081908376408658 
0.003081908376408658 
0.003081908376408659 
0.003081908376408658 
0.001732053743363795 
0.006163816752817316 
0.003081908376408658 
0.003081908376408658 
0.003081908376408658 
0.003081908376408658 
0.003081908376408658 
0.003081908376408658 
0.003081908376408658 
0.003081908376408658 
0.003081908376408658 
0.003081908376408658 
0.006163816752817316 
0.003081908376408658 
0.004502513463336655 
0.001405129629363723 
0.002810259258727446 
0.002810259258727446 
0.01405129629363723 
0.004215388888091171 
0.004215388888091171 
0.002810259258727446 
0.001405129629363723 
0.002810259258727446 
0.001405129629363723 
0.001405129629363723 
0.001405129629363723 
-0.002168091441876682 
0.001405129629363723 
0.001405129629363723 
0.001405129629363723 
0.001405129629363723 
0.001405129629363723 
-0.004886270530529927 
0.001405129629363723 
0.001405129629363723 
0.001405129629363723 
0.001405129629363723 
0.0006721955661638673 
0.001405129629363723 
0.002815940863466657 
0.001405129629363723 
0.004215388888091171 
0.001405129629363723 
0.00320455479126938 
0.001405129629363723 
0.001405129629363723 
0.007048374565775456 
0.001405129629363723 
0.004306719416994021 
0.001405129629363723 
0.001405129629363723 
0.001405129629363723 
0.001405129629363723 
0.001405129629363723 
0.001405129629363723 
0.001405129629363723 
0.02152080901327215 
0.0207727583757697 
0.02152080901327215 
0.02152080901327215 
0.02189543437392092 
0.02152080901327215 
-0.001042676132126622 
9.005442372555096e-05 
-0.001790726769629067 
-0.003317609002865277 
-0.002378337942053274 
-0.006256056792759732 
-0.001042676132126622 
-0.001042676132126622 
-0.009660947947536639 
-0.005299595985097046 
-0.001042676132126622 
-0.002508544258526335 
-0.001042676132126622 
-0.004170704528506488 
-0.002085352264253244 
-0.001042676132126622 
-0.001042676132126622 
-0.001042676132126622 
-0.003171136058611835 
-0.001042676132126622 
-0.002085352264253244 
-0.001042676132126622 
-0.001042676132126622 
-0.001042676132126622 
-0.001042676132126622 
-0.0006710006258584832 
-0.001042676132126622 
-0.001042676132126622 
-0.002085352264253244 
-0.002085352264253244 
-0.001042676132126622 
-0.001806146021416831 
-0.001042676132126622 
-0.001042676132126622 
-0.005401262454202379 
-0.001042676132126622 
-0.003286828044633958 
0.007862054420192747 
-0.004170704528506488 
-0.001042676132126622 
-0.001042676132126622 
-0.001042676132126622 
-0.003128028396379866 
-0.001042676132126622 
-0.01039634699524645 
-0.001042676132126622 
-0.001042676132126622 
-0.001042676132126622 
-0.001042676132126622 
-0.001042676132126622 
-0.001042676132126622 
-0.004723385283299301 
-0.002085352264253244 
-0.002085352264253244 
-0.002085352264253244 
-0.001042676132126622 
-0.001042676132126622 
-0.001042676132126622 
-0.002085352264253244 
-0.01819748520307814 
-0.002085352264253244 
-0.01357482486097228 
-0.002760279580775675 
-0.002085352264253244 
-0.002085352264253244 
-0.002085352264253244 
-0.002085352264253244 
-0.002085352264253244 
-0.002085352264253244 
-0.002085352264253244 
-0.002085352264253244 
-0.002085352264253244 
-0.002085352264253244 
-0.002085352264253244 
-0.002085352264253244 
-0.002085352264253244 
-0.002085352264253244 
-0.002085352264253244 
-0.002085352264253244 
-0.002085352264253244 
-0.002085352264253244 
-0.002085352264253244 
-0.001042676132126622 
-0.001042676132126622 
0.002547475799408103 
0 
0 
0.003413771069141017 
0 
0 
0 
0 
0 
0 
0 
-0.0003889585435225401 
0 
-0.008618271815410016 
0.0007220348490531581 
0 
0.005571373816337891 
0 
0 
0 
-0.0007480506375024455 
0 
-0.002198802189599568 
0.001410811234102933 
0.003868529777727588 
0 
0 
0 
0 
0 
0 
0 
0 
-0.0007329340631998559 
0 
-0.001465868126399712 
0 
0 
0 
0 
0.001215858247107426 
4.156384562762633e-05 
-0.005541167235287613 
0 
-1.084202172485504e-19 
-0.0009275246819822346 
0.003219950139811486 
0 
0 
0 
0 
0 
0.003570309482596507 
0 
0 
-0.002931736252799425 
0 
0 
-0.004199226920179911 
0.004905589031786554 
0 
-0.0006913702175722296 
0 
0 
0 
0 
0 
0 
0 
0 
0 
0 
0 
0 
0 
0 
0 
-0.0006749273165224313 
0 
0 
0 
0 
0.001093710355321296 
0 
-0.001496101275004891 
-0.0007329340631998559 
0 
0 
0 
0 
0 
0 
0 
-0.001335661809926651 
0 
0 
0 
0.004726761729487109 
0 
0 
0 
0 
0 
0 
0 
0 
0 
0.001465385861589436 
0.001020255144184241 
0.003451321522471416 
0.002040510288368481 
0.001020255144184241 
0.003841877612390106 
0.004081020576736962 
0.001135786372728813 
0.00241218579463662 
0.001020255144184241 
0.001020255144184241 
0.002040510288368481 
0.001020255144184241 
-0.007901268481480071 
0.002040510288368481 
0.002040510288368481 
0.002040510288368481 
0.001020255144184241 
-0.007598016671225777 
0.001020255144184241 
0.002040510288368481 
-0.002477901098220197 
0.001020255144184241 
0.00273350512446456 
-0.003338331177891516 
0.001020255144184241 
0.001020255144184241 
0.001020255144184241 
0.001020255144184241 
-0.002521965648362518 
0.01039878246861374 
-0.001119103996447671 
0.002158178833897913 
0.003270086735162297 
0.001020255144184241 
0.001020255144184241 
-0.004487916237506631 
0.001061818989811867 
0.001020255144184241 
0.001020255144184241 
0.001020255144184241 
0.002040510288368481 
0.002040510288368481 
0.001020255144184241 
0.001020255144184241 
0.00314649492867443 
0.001020255144184241 
0.001020255144184241 
0.001020255144184241 
0.001020255144184241 
0.001020255144184241 
0.001020255144184241 
-0.004162940233408433 
-0.002036700448918243 
-0.004162940233408433 
-0.004162940233408433 
-0.005498602043335086 
-0.005498602043335086 
-0.008325880466816865 
-0.004162940233408433 
-0.004162940233408433 
-0.008325880466816865 
-0.008325880466816865 
-0.009661542276743517 
-0.004162940233408433 
-0.004162940233408433 
-0.004162940233408433 
-0.000732934063199856 
-0.000732934063199856 
-0.000732934063199856 
-0.001407861379722287 
-0.001799005696947251 
0.0003997964926523168 
-0.000732934063199856 
-0.000732934063199856 
-0.000732934063199856 
-0.001465868126399712 
-0.000732934063199856 
-0.000732934063199856 
-0.000732934063199856 
-0.000732934063199856 
-0.000732934063199856 
-0.000732934063199856 
-0.000732934063199856 
-0.005091520385275612 
-0.000732934063199856 
-0.000732934063199856 
-0.001465868126399712 
-0.000732934063199856 
-0.000732934063199856 
-0.000732934063199856 
-0.000732934063199856 
-0.000732934063199856 
0.001355754341806154 
-0.000732934063199856 
-0.000732934063199856 
-0.000732934063199856 
-0.000732934063199856 
-0.001465868126399712 
-0.000732934063199856 
-0.001465868126399712 
-0.000732934063199856 
-0.000732934063199856 
-0.000732934063199856 
-0.000732934063199856 
-0.001465868126399712 
-0.000732934063199856 
0.001278064690712877 
-0.000732934063199856 
-0.001465868126399712 
-0.000732934063199856 
-0.002861393989685069 
-0.000732934063199856 
-0.000732934063199856 
-0.000732934063199856 
-0.002198802189599567 
-0.001465868126399712 
0.002168655724430443 
-0.000732934063199856 
-0.000732934063199856 
-0.000732934063199856 
-0.000732934063199856 
-0.001465868126399712 
-0.000732934063199856 
-0.001465868126399712 
-0.000732934063199856 
-0.004274317829687263 
-0.001465868126399712 
6.665892210477756e-05 
-0.0006913702175722296 
0.0004977162456915271 
-0.000732934063199856 
-0.002884794198650617 
-0.000732934063199856 
-0.000732934063199856 
-0.000732934063199856 
-0.000732934063199856 
-0.000732934063199856 
-0.000732934063199856 
-0.002884794198650617 
-0.000732934063199856 
-0.000732934063199856 
-0.000732934063199856 
-0.000732934063199856 
-0.000732934063199856 
-0.0006498063719446032 
-0.000732934063199856 
-0.000732934063199856 
-0.000732934063199856 
-0.000732934063199856 
0.000410732238259932 
0.004922601235565532 
0.001230650308891383 
0.002461300617782766 
0.006153251544456912 
0.001230650308891383 
-0.002267505933513055 
0.001230650308891383 
0.002461300617782766 
0.00369195092667415 
0.004922601235565532 
-0.004783053964296123 
0.001230650308891383 
0.002461300617782766 
0.007383901853348301 
0.001230650308891383 
0.001230650308891383 
0.001230650308891383 
0.001230650308891383 
0.001230650308891383 
0.001230650308891383 
0.001230650308891383 
0.001230650308891383 
0.001230650308891383 
0.001230650308891383 
0.001230650308891383 
0.001952685157944541 
0.001230650308891383 
0.001230650308891383 
0.0004825996713889377 
0.001230650308891383 
0.001230650308891383 
0.001230650308891383 
0.001230650308891383 
0.001230650308891383 
0.001230650308891383 
-0.000666635395401608 
0.001230650308891383 
0.001230650308891383 
0.002461300617782766 
0.001230650308891383 
0.0005557229923689517 
0.0005557229923689517 
0.001230650308891383 
0.001230650308891383 
0.001230650308891383 
0.002461300617782766 
0.001230650308891383 
0.001230650308891383 
0.002461300617782766 
0.001230650308891383 
0.001230650308891383 
0.001230650308891383 
0.001230650308891383 
0.001230650308891383 
0.001230650308891383 
0.001230650308891383 
0.001230650308891383 
0.001230650308891383 
0.001230650308891383 
-0.002143986273720774 
0.001230650308891383 
0.001230650308891383 
-0.005370710979608297 
-0.01074142195921659 
-0.005370710979608297 
-0.005370710979608297 
-0.002075184542697749 
-0.005370710979608297 
-0.005370710979608297 
-0.005370710979608297 
-0.005370710979608297 
-0.005370710979608297 
-0.005370710979608297 
-0.00532914713398067 
-0.005370710979608297 
-0.01289328209466735 
-0.00275011185922018 
-0.004999035473340161 
-0.005370710979608297 
-0.006118761617110741 
-0.005370710979608297 
-0.005370710979608297 
-0.005370710979608297 
-0.005370710979608297 
-0.005370710979608297 
-0.005370710979608297 
-0.005370710979608297 
-0.005370710979608297 
-0.005370710979608297 
-0.005370710979608297 
-0.001526882233236212 
-0.001526882233236212 
-0.001526882233236212 
0.005223512626502499 
-0.001526882233236212 
-0.001526882233236212 
-0.009773478542378091 
-0.001526882233236212 
0.000599357551253978 
-0.001526882233236212 
-0.002300948659187945 
-0.001526882233236212 
-0.001526882233236212 
-0.001526882233236212 
-0.004211191335435524 
-0.002862544043162862 
-0.001526882233236212 
-0.0008048473841830543 
0.002017411460911007 
-0.001526882233236212 
-0.001526882233236212 
-0.003053764466472425 
-0.001526882233236212 
-0.001526882233236212 
-0.004580646699708637 
-0.001526882233236212 
-0.003053764466472425 
-0.003053764466472425 
-0.007634411166181063 
-0.004580646699708637 
-8.281253512989637e-05 
-0.001526882233236212 
-0.001526882233236212 
-0.001526882233236212 
-0.003053764466472425 
-0.001526882233236212 
-0.001526882233236212 
-0.001526882233236212 
-0.001526882233236212 
0.001768644203674336 
-0.001526882233236212 
-0.001526882233236212 
-0.001526882233236212 
-0.001526882233236212 
-0.003053764466472425 
-0.001155206726968074 
-0.003053764466472425 
0.000599357551253978 
-0.001526882233236212 
0.000599357551253978 
-0.01045257765360886 
-0.001526882233236212 
-0.001526882233236212 
-0.003053764466472425 
-0.001526882233236212 
-0.001526882233236212 
0.001240278948135583 
-0.001526882233236212 
-0.001526882233236212 
-0.001526882233236212 
-0.01014515404864622 
0.0007385788784681332 
-0.001526882233236212 
-0.001526882233236212 
-0.001526882233236212 
-0.001526882233236212 
-0.001526882233236212 
-0.001526882233236212 
-0.001526882233236212 
-0.001526882233236212 
-0.001526882233236212 
-0.001526882233236212 
-0.001155206726968074 
-0.00215186013545076 
-0.00215186013545076 
-0.00215186013545076 
-0.00215186013545076 
-0.00215186013545076 
-0.00215186013545076 
-0.00215186013545076 
-0.00215186013545076 
-0.00215186013545076 
-0.00215186013545076 
-0.00215186013545076 
-0.005278340871587061 
-0.001780184629182622 
-0.00430372027090152 
-0.00215186013545076 
-0.002899910772953205 
-0.001408509122914483 
-0.00215186013545076 
-0.00215186013545076 
-0.00215186013545076 
-0.00215186013545076 
-0.00215186013545076 
-0.00215186013545076 
-0.01055157710778418 
-0.00215186013545076 
-0.00215186013545076 
-0.00215186013545076 
-0.00215186013545076 
-0.003276285904187513 
-0.00215186013545076 
-0.00215186013545076 
-0.019202939756298 
-0.00215186013545076 
-2.56203509605697e-05 
-0.00215186013545076 
-0.00215186013545076 
-0.00215186013545076 
-0.00215186013545076 
-0.00430372027090152 
-0.00215186013545076 
-0.00215186013545076 
-0.00215186013545076 
-0.00215186013545076 
-0.00430372027090152 
-0.00215186013545076 
-0.00494322567590838 
-0.01160328456596468 
-0.00215186013545076 
0.01041237715979349 
-0.00215186013545076 
-0.00215186013545076 
-0.00215186013545076 
-0.00215186013545076 
-0.00215186013545076 
-0.00215186013545076 
-0.00215186013545076 
-0.00215186013545076 
-0.00215186013545076 
-0.00215186013545076 
-0.01077013195086078 
-0.0113000327557104 
-0.00430372027090152 
-0.00430372027090152 
-0.00215186013545076 
-0.002110296289823135 
-0.00215186013545076 
-0.00215186013545076 
-0.00215186013545076 
-0.00215186013545076 
-0.00215186013545076 
-0.00215186013545076 
-0.00215186013545076 
0.007621011619335868 
-0.00215186013545076 
-0.00215186013545076 
-0.00215186013545076 
-0.00215186013545076 
-0.005650016377855198 
-0.00215186013545076 
-0.00215186013545076 
-0.00215186013545076 
-0.00215186013545076 
-0.00215186013545076 
-0.00215186013545076 
-0.00215186013545076 
-0.00215186013545076 
-0.00215186013545076 
-0.00215186013545076 
-0.00215186013545076 
-0.00215186013545076 
-0.00215186013545076 
-0.00215186013545076 
-0.00215186013545076 
-0.00215186013545076 
-0.00215186013545076 
-0.00215186013545076 
-0.00215186013545076 
-0.00215186013545076 
0.001410811234102933 
0.001410811234102933 
0.001410811234102933 
0.001410811234102933 
0.001410811234102933 
0.001410811234102933 
0.001410811234102933 
0.001410811234102933 
0.001410811234102933 
0.001410811234102933 
0.004232433702308799 
0.004232433702308799 
0.004232433702308799 
0.001410811234102933 
0.002821622468205867 
0.004232433702308799 
0.0007358839175805017 
0.001410811234102933 
0.002821622468205867 
0.002821622468205867 
0.001410811234102933 
0.001410811234102933 
0.001410811234102933 
0.002821622468205867 
0.001410811234102933 
0.001410811234102933 
-0.002947775087972824 
0.001410811234102933 
0.001410811234102933 
0.001410811234102933 
0.001410811234102933 
0.001410811234102933 
0.001410811234102933 
0.001410811234102933 
0.001410811234102933 
0.001410811234102933 
0.001410811234102933 
0.001410811234102933 
0.001410811234102933 
0.001410811234102933 
0.001410811234102933 
0.001410811234102933 
0.001410811234102933 
0.001410811234102933 
0.001410811234102933 
0.001410811234102933 
0.001410811234102933 
0.001410811234102933 
0.001410811234102933 
0.002821622468205867 
0.001410811234102933 
0.001410811234102933 
0.001410811234102933 
0.001410811234102933 
0.001410811234102933 
0.001410811234102933 
0.001410811234102933 
0.001410811234102933 
0.001410811234102933 
0.001410811234102933 
0.001410811234102933 
0.0029015897876303 
0.0029015897876303 
0.0029015897876303 
-0.01320222328733756 
0.0029015897876303 
0.0029015897876303 
0.0029015897876303 
0.0029015897876303 
0.0029015897876303 
0.0029015897876303 
0.0029015897876303 
0.0029015897876303 
0.0029015897876303 
0.0029015897876303 
0.0029015897876303 
0.0029015897876303 
0.0029015897876303 
0.0029015897876303 
0.0029015897876303 
0.0029015897876303 
0.0029015897876303 
0.0029015897876303 
0.0029015897876303 
-0.001456996534445457 
0.0029015897876303 
0.0029015897876303 
0.0029015897876303 
0.0029015897876303 
0.002153539150127855 
0.0029015897876303 
0.0029015897876303 
0.0029015897876303 
0.0058031795752606 
0.005027829572120489 
0.005027829572120489 
0.0029015897876303 
-0.00571668202777972 
0.006174855081528737 
0.0029015897876303 
-0.009729426686712981 
0.0029015897876303 
0.0029015897876303 
0.0029015897876303 
0.0029015897876303 
0.01370216098495792 
0.001859958538766831 
-0.002360232552690766 
0.001137923689713672 
0.001137923689713672 
0.001137923689713672 
0.001137923689713672 
0.001137923689713672 
0.001137923689713672 
0.001137923689713672 
0.001137923689713672 
0.001137923689713672 
0.002275847379427345 
0.001137923689713672 
0.001137923689713672 
0.001137923689713672 
0.0004535334613347752 
0.001137923689713672 
0.001137923689713672 
0.001137923689713672 
0.001137923689713672 
0.001179487535341299 
0.001137923689713672 
0.001137923689713672 
0.002275847379427345 
0.001137923689713672 
0.001137923689713672 
0.001137923689713672 
0.001137923689713672 
0.001137923689713672 
0.001137923689713672 
0.001137923689713672 
0.001881274702249949 
0.001137923689713672 
0.001137923689713672 
0.001137923689713672 
0.002275847379427345 
0.002992689094619003 
0.008866900253248444 
0.002275847379427345 
0.001509599195981811 
0.002275847379427345 
0.0008959722351083185 
0.001137923689713672 
-0.0152213866938527 
0.001137923689713672 
0.001137923689713672 
-0.007041731502069515 
0.001137923689713672 
0.001859958538766831 
0.001137923689713672 
0.001137923689713672 
0.001137923689713672 
0.001137923689713672 
0.001137923689713672 
0.002275847379427345 
0.001137923689713672 
0.001137923689713672 
0.001137923689713672 
0.001137923689713672 
0.002275847379427345 
0.003413771069141017 
0.003413771069141017 
0.001137923689713672 
0.001137923689713672 
0.000389873052211227 
0.001881274702249949 
0.002275847379427345 
0.001137923689713672 
0.001137923689713672 
0.001137923689713672 
-0.004358586322075757 
-0.004358586322075757 
-0.004358586322075757 
-0.004358586322075757 
-0.004358586322075757 
-0.004358586322075757 
-0.004358586322075757 
-0.004358586322075757 
-0.004358586322075757 
-0.01094951918173708 
-0.004358586322075757 
-0.001860671031317429 
-0.004358586322075757 
-0.004358586322075757 
-0.004358586322075757 
-0.004358586322075757 
-0.01743434528830303 
-0.004358586322075757 
-0.004358586322075757 
-0.005106636959578201 
-0.004358586322075757 
-0.004358586322075757 
-0.004358586322075757 
-0.004358586322075757 
-0.004358586322075757 
-0.004358586322075757 
-0.004358586322075757 
-0.004358586322075757 
-0.004358586322075757 
-0.004358586322075757 
-0.004358586322075757 
-0.004358586322075757 
-0.004358586322075757 
-0.004358586322075757 
-0.004358586322075757 
-0.002128459926485213 
-0.003783651235578668 
-0.001756784420217075 
-0.001385108913948936 
-0.002128459926485213 
-0.004256919852970427 
-0.002128459926485213 
-0.002086896080857588 
-0.002086896080857588 
-0.002128459926485213 
-0.002128459926485213 
-0.002128459926485213 
-0.002128459926485213 
-0.002128459926485213 
-0.002128459926485213 
-0.002128459926485213 
-0.002128459926485213 
-0.002128459926485213 
-0.002128459926485213 
-0.002128459926485213 
-0.002128459926485213 
-0.002128459926485213 
-0.002128459926485213 
-0.007770488693404577 
-0.002128459926485213 
-0.002128459926485213 
-0.002128459926485213 
-0.002128459926485213 
-0.002128459926485213 
-0.002128459926485213 
-0.002128459926485213 
-0.002128459926485213 
-0.002086896080857588 
-0.002128459926485213 
-0.001385108913948936 
-0.002128459926485213 
-0.002128459926485213 
-0.004256919852970427 
0.002846054491548327 
-0.002128459926485213 
-0.002128459926485213 
-0.002128459926485213 
-0.002128459926485213 
-0.002128459926485213 
-0.002128459926485213 
-0.002128459926485213 
-0.004256919852970427 
-0.002128459926485213 
-0.002128459926485213 
-0.002128459926485213 
-0.002128459926485213 
-0.002128459926485213 
-0.002128459926485213 
-0.001756784420217075 
-0.002128459926485213 
-0.002128459926485213 
-0.002128459926485213 
0.0003694553642731158 
-0.002128459926485213 
-0.002128459926485213 
-0.001756784420217075 
-0.002128459926485213 
-0.002130680068480236 
-0.002128459926485213 
-0.002128459926485213 
-0.002128459926485213 
-0.002128459926485213 
-0.002128459926485213 
-0.002128459926485213 
-0.002128459926485213 
-0.002128459926485213 
-0.001756784420217075 
-0.001756784420217075 
-0.002128459926485213 
-0.002128459926485213 
-0.002128459926485213 
-0.002128459926485213 
-0.002128459926485213 
-0.002128459926485213 
-0.002128459926485213 
-0.002128459926485213 
-0.002128459926485213 
-0.002128459926485213 
-0.002128459926485213 
-0.002128459926485213 
-0.002128459926485213 
-0.002128459926485213 
-0.004919825466942838 
-0.002128459926485213 
-0.002128459926485213 
-0.002128459926485213 
0 
0 
0.003258970340342363 
0 
0 
0 
0 
0 
0 
0 
0 
0 
0 
0 
0 
0 
0 
0 
0 
0 
0 
4.156384562762649e-05 
0 
0 
0 
0 
0 
0 
0 
0 
0.002126239784490191 
0 
-0.0006749273165224314 
0 
0 
0 
0 
0 
0 
0 
0 
0 
0 
0 
0 
0 
0 
0 
0 
0 
0 
0 
-0.0003032518102542931 
0 
-0.0006749273165224314 
0 
0 
0 
0 
0 
0 
0 
0 
0 
0 
0 
0 
0 
0 
0 
0 
0 
0 
0 
0.0003716755062681385 
0 
0 
0 
0 
0.001132730555852173 
0 
0 
0 
0 
0 
0 
0 
0 
0 
0 
0 
0 
0 
0.0003716755062681385 
0 
0 
0 
0 
0 
0 
0 
0 
0 
0 
0 
0 
0 
-0.003498156242404438 
0 
0 
0 
0 
-0.00279136554045762 
-0.00558273108091524 
-0.00279136554045762 
-0.00558273108091524 
-0.00279136554045762 
-0.00279136554045762 
-0.00279136554045762 
-0.00279136554045762 
-0.00279136554045762 
-0.00279136554045762 
-0.00558273108091524 
-0.00558273108091524 
-0.00279136554045762 
-0.002069330691404461 
-0.00279136554045762 
-0.004127027350384272 
-0.00279136554045762 
-0.00279136554045762 
0.000504160896452928 
-0.00558273108091524 
-0.00279136554045762 
-0.00279136554045762 
-0.00279136554045762 
-0.00279136554045762 
-0.00279136554045762 
-0.00279136554045762 
-0.00279136554045762 
-0.00279136554045762 
-0.00279136554045762 
-0.00279136554045762 
-0.00279136554045762 
-0.00279136554045762 
-0.00279136554045762 
-0.00279136554045762 
-0.001658634984605447 
-0.00279136554045762 
-0.00279136554045762 
-0.00279136554045762 
-0.002069330691404461 
-0.00279136554045762 
-0.00279136554045762 
-0.00279136554045762 
-0.00279136554045762 
-0.003539416177960066 
-0.0006651257559674296 
-0.00279136554045762 
-0.00279136554045762 
